Language model created by QuickLM on Tue Mar 30 19:59:04 EDT 2021
Copyright (c) 1996-2010 Carnegie Mellon University and Alexander I. Rudnicky

The model is in standard ARPA format, designed by Doug Paul while he was at MITRE.

The code that was used to produce this language model is available in Open Source.
Please visit http://www.speech.cs.cmu.edu/tools/ for more information

The (fixed) discount mass is 0.5. The backoffs are computed using the ratio method.
This model based on a corpus of 1283 sentences and 1284 words

\data\
ngram 1=1284
ngram 2=2564
ngram 3=1282

\1-grams:
-0.7782 </s> -0.3010
-0.7782 <s> -0.2218
-3.8864 ACE -0.2218

\end\