Language model created by QuickLM on Tue Mar 30 19:59:04 EDT 2021
Copyright (c) 1996-2010 Carnegie Mellon University and Alexander I. Rudnicky

The model is in standard ARPA format, designed by Doug Paul while he was at MITRE.

The code that was used to produce this language model is available in Open Source.
Please visit http://www.speech.cs.cmu.edu/tools/ for more information

The (fixed) discount mass is 0.5. The backoffs are computed using the ratio method.
This model based on a corpus of 1283 sentences and 1284 words

\data\
ngram 1=1284
ngram 2=2564
ngram 3=1282

\1-grams:
-0.7782 </s> -0.3010
-0.7782 <s> -0.2218
-3.8864 ACE -0.2218
-3.8864 ACHES -0.2218
-3.8864 AGE -0.2218
-3.8864 AIM -0.2218
-3.8864 ALE -0.2218
-3.8864 ALIVE -0.2218
-3.8864 AM -0.2218
-3.8864 AN -0.2218
-3.8864 ANKLE -0.2218
-3.8864 ARC -0.2218
-3.8864 ARCH -0.2218
-3.8864 ARRIVE -0.2218
-3.8864 ART -0.2218
-3.8864 ASH -0.2218
-3.8864 ASS -0.2218
-3.8864 AWED -0.2218
-3.8864 BACK -0.2218
-3.8864 BAD -0.2218
-3.8864 BADE -0.2218
-3.8864 BADGE -0.2218
-3.8864 BAG -0.2218
-3.8864 BAIL -0.2218
-3.8864 BAIT -0.2218
-3.8864 BAIZE -0.2218
-3.8864 BAKE -0.2218
-3.8864 BALE -0.2218
-3.8864 BALL -0.2218
-3.8864 BAN -0.2218
-3.8864 BAND -0.2218
-3.8864 BANE -0.2218
-3.8864 BANG -0.2218
-3.8864 BANGED -0.2218
-3.8864 BANK -0.2218
-3.8864 BANKER -0.2218
-3.8864 BANNED -0.2218
-3.8864 BAR -0.2218
-3.8864 BARBS -0.2218
-3.8864 BARD -0.2218
-3.8864 BARGE -0.2218
-3.8864 BARN -0.2218
-3.8864 BARRED -0.2218
-3.8864 BASED -0.2218
-3.8864 BASH -0.2218
-3.8864 BASS -0.2218
-3.8864 BAT -0.2218
-3.8864 BATCH -0.2218
-3.8864 BATED -0.2218
-3.8864 BATH -0.2218
-3.8864 BATHE -0.2218
-3.8864 BATTER -0.2218
-3.8864 BAYS -0.2218
-3.8864 BEACH -0.2218
-3.8864 BEAM -0.2218
-3.8864 BEAN -0.2218
-3.8864 BEAT -0.2218
-3.8864 BECK -0.2218
-3.8864 BED -0.2218
-3.8864 BEECH -0.2218
-3.8864 BEEN -0.2218
-3.8864 BEER -0.2218
-3.8864 BEET -0.2218
-3.8864 BEGAN -0.2218
-3.8864 BEGUN -0.2218
-3.8864 BELCH -0.2218
-3.8864 BELL -0.2218
-3.8864 BELLY -0.2218
-3.8864 BELT -0.2218
-3.8864 BENCH -0.2218
-3.8864 BENT -0.2218
-3.8864 BERRY -0.2218
-3.8864 BERTH -0.2218
-3.8864 BEST -0.2218
-3.8864 BET -0.2218
-3.8864 BETTED -0.2218
-3.8864 BID -0.2218
-3.8864 BILE -0.2218
-3.8864 BIRD -0.2218
-3.8864 BIRTH -0.2218
-3.8864 BIT -0.2218
-3.8864 BITCH -0.2218
-3.8864 BITCHY -0.2218
-3.8864 BITTY -0.2218
-3.8864 BIZ -0.2218
-3.8864 BLABBER -0.2218
-3.8864 BLACKEN -0.2218
-3.8864 BLADE -0.2218
-3.8864 BLAH -0.2218
-3.8864 BLAIN -0.2218
-3.8864 BLAME -0.2218
-3.8864 BLEACH -0.2218
-3.8864 BLEAT -0.2218
-3.8864 BLED -0.2218
-3.8864 BLEW -0.2218
-3.8864 BLIGHT -0.2218
-3.8864 BLOT -0.2218
-3.8864 BLOTCH -0.2218
-3.8864 BLUBBER -0.2218
-3.8864 BLUE -0.2218
-3.8864 BLUES -0.2218
-3.8864 BLUR -0.2218
-3.8864 BLUSH -0.2218
-3.8864 BOAT -0.2218
-3.8864 BODE -0.2218
-3.8864 BOLT -0.2218
-3.8864 BONGS -0.2218
-3.8864 BONZE -0.2218
-3.8864 BOOM -0.2218
-3.8864 BOON -0.2218
-3.8864 BORE -0.2218
-3.8864 BORED -0.2218
-3.8864 BOSH -0.2218
-3.8864 BOSS -0.2218
-3.8864 BOT -0.2218
-3.8864 BOTCH -0.2218
-3.8864 BOUGHT -0.2218
-3.8864 BOW -0.2218
-3.8864 BOWELS -0.2218
-3.8864 BOWL -0.2218
-3.8864 BRACED -0.2218
-3.8864 BRACKEN -0.2218
-3.8864 BRAID -0.2218
-3.8864 BRASH -0.2218
-3.8864 BREAD -0.2218
-3.8864 BREAST -0.2218
-3.8864 BREATHE -0.2218
-3.8864 BREEZE -0.2218
-3.8864 BREW -0.2218
-3.8864 BRIGHT -0.2218
-3.8864 BROOM -0.2218
-3.8864 BRUISE -0.2218
-3.8864 BRUSH -0.2218
-3.8864 BUCK -0.2218
-3.8864 BUD -0.2218
-3.8864 BUDGE -0.2218
-3.8864 BUG -0.2218
-3.8864 BUN -0.2218
-3.8864 BUNG -0.2218
-3.8864 BUNK -0.2218
-3.8864 BUNKER -0.2218
-3.8864 BURBS -0.2218
-3.8864 BURN -0.2218
-3.8864 BURR -0.2218
-3.8864 BURY -0.2218
-3.8864 BUT -0.2218
-3.8864 BUTTER -0.2218
-3.8864 C -0.2218
-3.8864 CAB -0.2218
-3.8864 CAD -0.2218
-3.8864 CADGE -0.2218
-3.8864 CAM -0.2218
-3.8864 CAME -0.2218
-3.8864 CAN -0.2218
-3.8864 CANE -0.2218
-3.8864 CAP -0.2218
-3.8864 CAR -0.2218
-3.8864 CARBS -0.2218
-3.8864 CARD -0.2218
-3.8864 CART -0.2218
-3.8864 CARVE -0.2218
-3.8864 CAT -0.2218
-3.8864 CATCH -0.2218
-3.8864 CATCHY -0.2218
-3.8864 CATTY -0.2218
-3.8864 CHAIR -0.2218
-3.8864 CHALK -0.2218
-3.8864 CHAMP -0.2218
-3.8864 CHAP -0.2218
-3.8864 CHAR -0.2218
-3.8864 CHARGE -0.2218
-3.8864 CHARRED -0.2218
-3.8864 CHART -0.2218
-3.8864 CHASE -0.2218
-3.8864 CHAT -0.2218
-3.8864 CHAUFFEUR -0.2218
-3.8864 CHEAT -0.2218
-3.8864 CHEEK -0.2218
-3.8864 CHEER -0.2218
-3.8864 CHEESE -0.2218
-3.8864 CHESS -0.2218
-3.8864 CHEST -0.2218
-3.8864 CHEW -0.2218
-3.8864 CHIC -0.2218
-3.8864 CHICK -0.2218
-3.8864 CHIDE -0.2218
-3.8864 CHILD -0.2218
-3.8864 CHILL -0.2218
-3.8864 CHIME -0.2218
-3.8864 CHIN -0.2218
-3.8864 CHING -0.2218
-3.8864 CHIP -0.2218
-3.8864 CHIRPS -0.2218
-3.8864 CHIT -0.2218
-3.8864 CHOKE -0.2218
-3.8864 CHOOSE -0.2218
-3.8864 CHOP -0.2218
-3.8864 CHORE -0.2218
-3.8864 CHORES -0.2218
-3.8864 CHOSE -0.2218
-3.8864 CHUBBY -0.2218
-3.8864 CHUFFED -0.2218
-3.8864 CHUG -0.2218
-3.8864 CHUMP -0.2218
-3.8864 CHURN -0.2218
-3.8864 CLAM -0.2218
-3.8864 CLAN -0.2218
-3.8864 CLANG -0.2218
-3.8864 CLASH -0.2218
-3.8864 CLAWS -0.2218
-3.8864 CLOSE -0.2218
-3.8864 CLOSING -0.2218
-3.8864 CLOTHE -0.2218
-3.8864 CLOTHING -0.2218
-3.8864 CLOWN -0.2218
-3.8864 COACH -0.2218
-3.8864 COAST -0.2218
-3.8864 COAT -0.2218
-3.8864 CODE -0.2218
-3.8864 COKE -0.2218
-3.8864 COLLECT -0.2218
-3.8864 COMB -0.2218
-3.8864 COME -0.2218
-3.8864 CONE -0.2218
-3.8864 COPES -0.2218
-3.8864 CORD -0.2218
-3.8864 CORK -0.2218
-3.8864 CORN -0.2218
-3.8864 CORPSE -0.2218
-3.8864 CORRECT -0.2218
-3.8864 COSHED -0.2218
-3.8864 COST -0.2218
-3.8864 COURSED -0.2218
-3.8864 CRAM -0.2218
-3.8864 CRASH -0.2218
-3.8864 CRASS -0.2218
-3.8864 CRAW -0.2218
-3.8864 CROW -0.2218
-3.8864 CROWN -0.2218
-3.8864 CRUMB -0.2218
-3.8864 CRUSH -0.2218
-3.8864 CRUSHED -0.2218
-3.8864 CRUST -0.2218
-3.8864 CS -0.2218
-3.8864 CUB -0.2218
-3.8864 CUP -0.2218
-3.8864 CUR -0.2218
-3.8864 CURB -0.2218
-3.8864 CURBS -0.2218
-3.8864 CURD -0.2218
-3.8864 CURT -0.2218
-3.8864 CURVE -0.2218
-3.8864 CUT -0.2218
-3.8864 DAB -0.2218
-3.8864 DABBLE -0.2218
-3.8864 DAD -0.2218
-3.8864 DALE -0.2218
-3.8864 DAM -0.2218
-3.8864 DAMN -0.2218
-3.8864 DAMP -0.2218
-3.8864 DANGLE -0.2218
-3.8864 DANK -0.2218
-3.8864 DART -0.2218
-3.8864 DATE -0.2218
-3.8864 DAWN -0.2218
-3.8864 DAY -0.2218
-3.8864 DEAN -0.2218
-3.8864 DEANS -0.2218
-3.8864 DEAR -0.2218
-3.8864 DEBT -0.2218
-3.8864 DEEM -0.2218
-3.8864 DEEP -0.2218
-3.8864 DEIGN -0.2218
-3.8864 DELL -0.2218
-3.8864 DEN -0.2218
-3.8864 DIG -0.2218
-3.8864 DIM -0.2218
-3.8864 DIME -0.2218
-3.8864 DIN -0.2218
-3.8864 DINE -0.2218
-3.8864 DING -0.2218
-3.8864 DINK -0.2218
-3.8864 DINKS -0.2218
-3.8864 DIRT -0.2218
-3.8864 DISSED -0.2218
-3.8864 DIVE -0.2218
-3.8864 DO -0.2218
-3.8864 DOB -0.2218
-3.8864 DOCK -0.2218
-3.8864 DOE -0.2218
-3.8864 DOG -0.2218
-3.8864 DOME -0.2218
-3.8864 DON -0.2218
-3.8864 DONE -0.2218
-3.8864 DONG -0.2218
-3.8864 DOOR -0.2218
-3.8864 DOORS -0.2218
-3.8864 DORM -0.2218
-3.8864 DOSH -0.2218
-3.8864 DOSS -0.2218
-3.8864 DOT -0.2218
-3.8864 DOUBLE -0.2218
-3.8864 DOUSED -0.2218
-3.8864 DOVE -0.2218
-3.8864 DOZE -0.2218
-3.8864 DRAM -0.2218
-3.8864 DRANK -0.2218
-3.8864 DRAWN -0.2218
-3.8864 DREAD -0.2218
-3.8864 DREDGE -0.2218
-3.8864 DRIBBLE -0.2218
-3.8864 DRIVEL -0.2218
-3.8864 DRONE -0.2218
-3.8864 DRUM -0.2218
-3.8864 DRUNK -0.2218
-3.8864 DS -0.2218
-3.8864 DUB -0.2218
-3.8864 DUD -0.2218
-3.8864 DUG -0.2218
-3.8864 DUMB -0.2218
-3.8864 DUMP -0.2218
-3.8864 DUN -0.2218
-3.8864 DUNG -0.2218
-3.8864 DUNK -0.2218
-3.8864 DUST -0.2218
-3.8864 EACH -0.2218
-3.8864 EAT -0.2218
-3.8864 EDGE -0.2218
-3.8864 ETCH -0.2218
-3.8864 FACE -0.2218
-3.8864 FACED -0.2218
-3.8864 FAD -0.2218
-3.8864 FADE -0.2218
-3.8864 FAG -0.2218
-3.8864 FAIL -0.2218
-3.8864 FAIR -0.2218
-3.8864 FAITH -0.2218
-3.8864 FALL -0.2218
-3.8864 FAME -0.2218
-3.8864 FAN -0.2218
-3.8864 FANG -0.2218
-3.8864 FANNED -0.2218
-3.8864 FAR -0.2218
-3.8864 FARE -0.2218
-3.8864 FARM -0.2218
-3.8864 FART -0.2218
-3.8864 FAST -0.2218
-3.8864 FAT -0.2218
-3.8864 FATE -0.2218
-3.8864 FAWN -0.2218
-3.8864 FEAR -0.2218
-3.8864 FED -0.2218
-3.8864 FEE -0.2218
-3.8864 FEED -0.2218
-3.8864 FEEL -0.2218
-3.8864 FEES -0.2218
-3.8864 FEET -0.2218
-3.8864 FEIGN -0.2218
-3.8864 FEIGNED -0.2218
-3.8864 FELL -0.2218
-3.8864 FEN -0.2218
-3.8864 FENCE -0.2218
-3.8864 FEND -0.2218
-3.8864 FEW -0.2218
-3.8864 FEY -0.2218
-3.8864 FEZ -0.2218
-3.8864 FIBRE -0.2218
-3.8864 FIGHT -0.2218
-3.8864 FILL -0.2218
-3.8864 FIR -0.2218
-3.8864 FIRM -0.2218
-3.8864 FIRST -0.2218
-3.8864 FISHED -0.2218
-3.8864 FIST -0.2218
-3.8864 FIT -0.2218
-3.8864 FIVE -0.2218
-3.8864 FIVER -0.2218
-3.8864 FIZZ -0.2218
-3.8864 FLAKE -0.2218
-3.8864 FLAME -0.2218
-3.8864 FLANK -0.2218
-3.8864 FLASH -0.2218
-3.8864 FLAX -0.2218
-3.8864 FLAYED -0.2218
-3.8864 FLEA -0.2218
-3.8864 FLEAS -0.2218
-3.8864 FLECK -0.2218
-3.8864 FLED -0.2218
-3.8864 FLEE -0.2218
-3.8864 FLEES -0.2218
-3.8864 FLINCH -0.2218
-3.8864 FLINT -0.2218
-3.8864 FLUNK -0.2218
-3.8864 FLUSH -0.2218
-3.8864 FLUX -0.2218
-3.8864 FLY -0.2218
-3.8864 FOAL -0.2218
-3.8864 FOAM -0.2218
-3.8864 FOB -0.2218
-3.8864 FOE -0.2218
-3.8864 FOES -0.2218
-3.8864 FOG -0.2218
-3.8864 FOLK -0.2218
-3.8864 FOP -0.2218
-3.8864 FORCE -0.2218
-3.8864 FORD -0.2218
-3.8864 FORE -0.2218
-3.8864 FORGE -0.2218
-3.8864 FORK -0.2218
-3.8864 FORM -0.2218
-3.8864 FOUND -0.2218
-3.8864 FOUR -0.2218
-3.8864 FOURTH -0.2218
-3.8864 FOWL -0.2218
-3.8864 FREE -0.2218
-3.8864 FREEZE -0.2218
-3.8864 FREIGHT -0.2218
-3.8864 FRET -0.2218
-3.8864 FRY -0.2218
-3.8864 FUN -0.2218
-3.8864 FUND -0.2218
-3.8864 FUNKY -0.2218
-3.8864 FUNNY -0.2218
-3.8864 FUR -0.2218
-3.8864 FURL -0.2218
-3.8864 GAIN -0.2218
-3.8864 GALL -0.2218
-3.8864 GAME -0.2218
-3.8864 GAS -0.2218
-3.8864 GASH -0.2218
-3.8864 GATE -0.2218
-3.8864 GEEZ -0.2218
-3.8864 GEL -0.2218
-3.8864 GET -0.2218
-3.8864 GIN -0.2218
-3.8864 GIRD -0.2218
-3.8864 GIST -0.2218
-3.8864 GLAM -0.2218
-3.8864 GLAMOUR -0.2218
-3.8864 GLAND -0.2218
-3.8864 GLASS -0.2218
-3.8864 GLEAM -0.2218
-3.8864 GLEAN -0.2218
-3.8864 GLOW -0.2218
-3.8864 GLUM -0.2218
-3.8864 GNAT -0.2218
-3.8864 GNAWED -0.2218
-3.8864 GNOME -0.2218
-3.8864 GO -0.2218
-3.8864 GOAD -0.2218
-3.8864 GOAL -0.2218
-3.8864 GONE -0.2218
-3.8864 GONG -0.2218
-3.8864 GORE -0.2218
-3.8864 GORED -0.2218
-3.8864 GORGE -0.2218
-3.8864 GRAB -0.2218
-3.8864 GRAM -0.2218
-3.8864 GRAMMAR -0.2218
-3.8864 GRAN -0.2218
-3.8864 GRAND -0.2218
-3.8864 GRASS -0.2218
-3.8864 GRIM -0.2218
-3.8864 GRIN -0.2218
-3.8864 GROSS -0.2218
-3.8864 GROW -0.2218
-3.8864 GROWTH -0.2218
-3.8864 GRUB -0.2218
-3.8864 GUARD -0.2218
-3.8864 GUM -0.2218
-3.8864 GUN -0.2218
-3.8864 GUSH -0.2218
-3.8864 GUSHED -0.2218
-3.8864 GUST -0.2218
-3.8864 GYM -0.2218
-3.8864 H -0.2218
-3.8864 HA -0.2218
-3.8864 HAD -0.2218
-3.8864 HAG -0.2218
-3.8864 HAIL -0.2218
-3.8864 HAIR -0.2218
-3.8864 HAKE -0.2218
-3.8864 HAKES -0.2218
-3.8864 HALL -0.2218
-3.8864 HAM -0.2218
-3.8864 HAND -0.2218
-3.8864 HANG -0.2218
-3.8864 HANGED -0.2218
-3.8864 HANKER -0.2218
-3.8864 HARD -0.2218
-3.8864 HARE -0.2218
-3.8864 HARM -0.2218
-3.8864 HARPIES -0.2218
-3.8864 HASH -0.2218
-3.8864 HASTE -0.2218
-3.8864 HAT -0.2218
-3.8864 HATCH -0.2218
-3.8864 HATE -0.2218
-3.8864 HAW -0.2218
-3.8864 HAY -0.2218
-3.8864 HAZE -0.2218
-3.8864 HE -0.2218
-3.8864 HE'LL -0.2218
-3.8864 HE'S -0.2218
-3.8864 HEAD -0.2218
-3.8864 HEAR -0.2218
-3.8864 HEARD -0.2218
-3.8864 HEART -0.2218
-3.8864 HEAT -0.2218
-3.8864 HECK -0.2218
-3.8864 HEDGE -0.2218
-3.8864 HEEL -0.2218
-3.8864 HEIGHT -0.2218
-3.8864 HELL -0.2218
-3.8864 HENCE -0.2218
-3.8864 HER -0.2218
-3.8864 HERD -0.2218
-3.8864 HERPES -0.2218
-3.8864 HEW -0.2218
-3.8864 HEX -0.2218
-3.8864 HE__ -0.2218
-3.8864 HILL -0.2218
-3.8864 HIS -0.2218
-3.8864 HIT -0.2218
-3.8864 HITCH -0.2218
-3.8864 HIVE -0.2218
-3.8864 HOB -0.2218
-3.8864 HOE -0.2218
-3.8864 HOG -0.2218
-3.8864 HOME -0.2218
-3.8864 HONE -0.2218
-3.8864 HONEY -0.2218
-3.8864 HOOCH -0.2218
-3.8864 HOOT -0.2218
-3.8864 HOP -0.2218
-3.8864 HORN -0.2218
-3.8864 HORSE -0.2218
-3.8864 HOSE -0.2218
-3.8864 HOUND -0.2218
-3.8864 HOWL -0.2218
-3.8864 HUG -0.2218
-3.8864 HUM -0.2218
-3.8864 HUN -0.2218
-3.8864 HUNCH -0.2218
-3.8864 HUNG -0.2218
-3.8864 HUNKER -0.2218
-3.8864 HUNKY -0.2218
-3.8864 HUNT -0.2218
-3.8864 HURL -0.2218
-3.8864 HURT -0.2218
-3.8864 HUSH -0.2218
-3.8864 HUT -0.2218
-3.8864 HUTCH -0.2218
-3.8864 IMPLODE -0.2218
-3.8864 IMPLORED -0.2218
-3.8864 IRK -0.2218
-3.8864 IT -0.2218
-3.8864 ITCH -0.2218
-3.8864 J -0.2218
-3.8864 JAB -0.2218
-3.8864 JAG -0.2218
-3.8864 JAIL -0.2218
-3.8864 JAM -0.2218
-3.8864 JANGLE -0.2218
-3.8864 JAW -0.2218
-3.8864 JAY -0.2218
-3.8864 JEANS -0.2218
-3.8864 JEEP -0.2218
-3.8864 JEER -0.2218
-3.8864 JELLY -0.2218
-3.8864 JERRY -0.2218
-3.8864 JET -0.2218
-3.8864 JEW -0.2218
-3.8864 JIBE -0.2218
-3.8864 JIG -0.2218
-3.8864 JINK -0.2218
-3.8864 JINX -0.2218
-3.8864 JIVE -0.2218
-3.8864 JOB -0.2218
-3.8864 JOCK -0.2218
-3.8864 JOE -0.2218
-3.8864 JOG -0.2218
-3.8864 JOSH -0.2218
-3.8864 JOSS -0.2218
-3.8864 JOT -0.2218
-3.8864 JOUST -0.2218
-3.8864 JUG -0.2218
-3.8864 JUMP -0.2218
-3.8864 JUNK -0.2218
-3.8864 JUST -0.2218
-3.8864 KEN -0.2218
-3.8864 KICK -0.2218
-3.8864 KIN -0.2218
-3.8864 KING -0.2218
-3.8864 KISS -0.2218
-3.8864 KIT -0.2218
-3.8864 KITH -0.2218
-3.8864 KITSCH -0.2218
-3.8864 KNOW -0.2218
-3.8864 KNOWN -0.2218
-3.8864 KURD -0.2218
-3.8864 L -0.2218
-3.8864 LACE -0.2218
-3.8864 LACED -0.2218
-3.8864 LACK -0.2218
-3.8864 LAG -0.2218
-3.8864 LAGGING -0.2218
-3.8864 LAID -0.2218
-3.8864 LAIR -0.2218
-3.8864 LAKE -0.2218
-3.8864 LAMB -0.2218
-3.8864 LAMP -0.2218
-3.8864 LANE -0.2218
-3.8864 LANES -0.2218
-3.8864 LANK -0.2218
-3.8864 LAP -0.2218
-3.8864 LASH -0.2218
-3.8864 LATE -0.2218
-3.8864 LATHE -0.2218
-3.8864 LATHER -0.2218
-3.8864 LAW -0.2218
-3.8864 LAY -0.2218
-3.8864 LAZE -0.2218
-3.8864 LEAD -0.2218
-3.8864 LEADER -0.2218
-3.8864 LEAP -0.2218
-3.8864 LED -0.2218
-3.8864 LEDGE -0.2218
-3.8864 LEECH -0.2218
-3.8864 LEEK -0.2218
-3.8864 LEER -0.2218
-3.8864 LENS -0.2218
-3.8864 LENTIL -0.2218
-3.8864 LESS -0.2218
-3.8864 LEST -0.2218
-3.8864 LET -0.2218
-3.8864 LIB -0.2218
-3.8864 LICE -0.2218
-3.8864 LICK -0.2218
-3.8864 LID -0.2218
-3.8864 LIED -0.2218
-3.8864 LIES -0.2218
-3.8864 LIGHT -0.2218
-3.8864 LIGHTER -0.2218
-3.8864 LIMB -0.2218
-3.8864 LIME -0.2218
-3.8864 LINK -0.2218
-3.8864 LINT -0.2218
-3.8864 LIP -0.2218
-3.8864 LIST -0.2218
-3.8864 LIT -0.2218
-3.8864 LITHE -0.2218
-3.8864 LOAD -0.2218
-3.8864 LOAM -0.2218
-3.8864 LOATHE -0.2218
-3.8864 LOAVES -0.2218
-3.8864 LOB -0.2218
-3.8864 LOBE -0.2218
-3.8864 LOBES -0.2218
-3.8864 LOCK -0.2218
-3.8864 LOCKER -0.2218
-3.8864 LOCKET -0.2218
-3.8864 LONG -0.2218
-3.8864 LOOK -0.2218
-3.8864 LOOM -0.2218
-3.8864 LOOT -0.2218
-3.8864 LOPE -0.2218
-3.8864 LORD -0.2218
-3.8864 LOT -0.2218
-3.8864 LOUT -0.2218
-3.8864 LOW -0.2218
-3.8864 LOWS -0.2218
-3.8864 LOYAL -0.2218
-3.8864 LUBBER -0.2218
-3.8864 LUCK -0.2218
-3.8864 LUG -0.2218
-3.8864 LUMP -0.2218
-3.8864 LUNG -0.2218
-3.8864 LUSH -0.2218
-3.8864 LUST -0.2218
-3.8864 LUTE -0.2218
-3.8864 LYNCH -0.2218
-3.8864 M -0.2218
-3.8864 MACE -0.2218
-3.8864 MAD -0.2218
-3.8864 MAIN -0.2218
-3.8864 MAM -0.2218
-3.8864 MAN -0.2218
-3.8864 MARCH -0.2218
-3.8864 MART -0.2218
-3.8864 MASH -0.2218
-3.8864 MASS -0.2218
-3.8864 MASSED -0.2218
-3.8864 MAT -0.2218
-3.8864 MATCH -0.2218
-3.8864 MATE -0.2218
-3.8864 MATH -0.2218
-3.8864 MAUL -0.2218
-3.8864 MEAN -0.2218
-3.8864 MEME -0.2218
-3.8864 MEN -0.2218
-3.8864 MESH -0.2218
-3.8864 MESS -0.2218
-3.8864 MET -0.2218
-3.8864 MID -0.2218
-3.8864 MIDGE -0.2218
-3.8864 MISS -0.2218
-3.8864 MOAN -0.2218
-3.8864 MOANING -0.2218
-3.8864 MOLE -0.2218
-3.8864 MOOCH -0.2218
-3.8864 MOOT -0.2218
-3.8864 MORE -0.2218
-3.8864 MORNING -0.2218
-3.8864 MORTAR -0.2218
-3.8864 MOSH -0.2218
-3.8864 MOSS -0.2218
-3.8864 MOTH -0.2218
-3.8864 MOTOR -0.2218
-3.8864 MOURN -0.2218
-3.8864 MOUSE -0.2218
-3.8864 MOUTH -0.2218
-3.8864 MOW -0.2218
-3.8864 MUCH -0.2218
-3.8864 MUD -0.2218
-3.8864 MUST -0.2218
-3.8864 MUTT -0.2218
-3.8864 MYTH -0.2218
-3.8864 NODE -0.2218
-3.8864 NOR -0.2218
-3.8864 NORSE -0.2218
-3.8864 NORTH -0.2218
-3.8864 NOT -0.2218
-3.8864 NOTCH -0.2218
-3.8864 NOTE -0.2218
-3.8864 NOUGHT -0.2218
-3.8864 NUT -0.2218
-3.8864 O -0.2218
-3.8864 OAT -0.2218
-3.8864 ODE -0.2218
-3.8864 OR -0.2218
-3.8864 OUCH -0.2218
-3.8864 OUGHT -0.2218
-3.8864 OUT -0.2218
-3.8864 OWE -0.2218
-3.8864 OWED -0.2218
-3.8864 PA -0.2218
-3.8864 PACK -0.2218
-3.8864 PADDLE -0.2218
-3.8864 PAGE -0.2218
-3.8864 PAID -0.2218
-3.8864 PAIN -0.2218
-3.8864 PAINT -0.2218
-3.8864 PAN -0.2218
-3.8864 PANG -0.2218
-3.8864 PAP -0.2218
-3.8864 PAR -0.2218
-3.8864 PARCH -0.2218
-3.8864 PARCHED -0.2218
-3.8864 PARK -0.2218
-3.8864 PARP -0.2218
-3.8864 PART -0.2218
-3.8864 PASS -0.2218
-3.8864 PASTE -0.2218
-3.8864 PAT -0.2218
-3.8864 PATCH -0.2218
-3.8864 PATH -0.2218
-3.8864 PATTER -0.2218
-3.8864 PEACH -0.2218
-3.8864 PEAT -0.2218
-3.8864 PEN -0.2218
-3.8864 PENT -0.2218
-3.8864 PER -0.2218
-3.8864 PERCH -0.2218
-3.8864 PERCHED -0.2218
-3.8864 PERK -0.2218
-3.8864 PERP -0.2218
-3.8864 PERT -0.2218
-3.8864 PERTH -0.2218
-3.8864 PEST -0.2218
-3.8864 PHASE -0.2218
-3.8864 PHLEGM -0.2218
-3.8864 PHONE -0.2218
-3.8864 PILOT -0.2218
-3.8864 PIN -0.2218
-3.8864 PING -0.2218
-3.8864 PIRATE -0.2218
-3.8864 PISS -0.2218
-3.8864 PIT -0.2218
-3.8864 PITCH -0.2218
-3.8864 PITH -0.2218
-3.8864 PLAY -0.2218
-3.8864 PLAYED -0.2218
-3.8864 PLED -0.2218
-3.8864 PLEDGE -0.2218
-3.8864 PLUS -0.2218
-3.8864 PLUSH -0.2218
-3.8864 POACH -0.2218
-3.8864 POKE -0.2218
-3.8864 POND -0.2218
-3.8864 PONGED -0.2218
-3.8864 PORCH -0.2218
-3.8864 PORK -0.2218
-3.8864 PORT -0.2218
-3.8864 POUCH -0.2218
-3.8864 POUT -0.2218
-3.8864 PRAY -0.2218
-3.8864 PUCK -0.2218
-3.8864 PUDDLE -0.2218
-3.8864 PUN -0.2218
-3.8864 PUNCH -0.2218
-3.8864 PUNT -0.2218
-3.8864 PUP -0.2218
-3.8864 PURGE -0.2218
-3.8864 PURR -0.2218
-3.8864 PURRED -0.2218
-3.8864 PURSE -0.2218
-3.8864 PUSH -0.2218
-3.8864 PUSS -0.2218
-3.8864 PUTT -0.2218
-3.8864 PUTTER -0.2218
-3.8864 QUARK -0.2218
-3.8864 QUART -0.2218
-3.8864 QUICK -0.2218
-3.8864 QUIRK -0.2218
-3.8864 QUOTE -0.2218
-3.8864 RABBLE -0.2218
-3.8864 RACE -0.2218
-3.8864 RACED -0.2218
-3.8864 RACK -0.2218
-3.8864 RAG -0.2218
-3.8864 RAGE -0.2218
-3.8864 RAGGING -0.2218
-3.8864 RAID -0.2218
-3.8864 RAIN -0.2218
-3.8864 RAINED -0.2218
-3.8864 RAISE -0.2218
-3.8864 RAKE -0.2218
-3.8864 RAM -0.2218
-3.8864 RAMP -0.2218
-3.8864 RAN -0.2218
-3.8864 RANG -0.2218
-3.8864 RANK -0.2218
-3.8864 RARE -0.2218
-3.8864 RASH -0.2218
-3.8864 RATE -0.2218
-3.8864 RATHER -0.2218
-3.8864 RAW -0.2218
-3.8864 RAY -0.2218
-3.8864 RAZE -0.2218
-3.8864 REACH -0.2218
-3.8864 READ -0.2218
-3.8864 READER -0.2218
-3.8864 REAP -0.2218
-3.8864 REAR -0.2218
-3.8864 REBEL -0.2218
-3.8864 RED -0.2218
-3.8864 REED -0.2218
-3.8864 REEK -0.2218
-3.8864 REND -0.2218
-3.8864 RENT -0.2218
-3.8864 RENTAL -0.2218
-3.8864 REST -0.2218
-3.8864 REVEL -0.2218
-3.8864 RHYME -0.2218
-3.8864 RIB -0.2218
-3.8864 RICE -0.2218
-3.8864 RICH -0.2218
-3.8864 RICK -0.2218
-3.8864 RID -0.2218
-3.8864 RIDE -0.2218
-3.8864 RIDGE -0.2218
-3.8864 RIGHT -0.2218
-3.8864 RIM -0.2218
-3.8864 RINK -0.2218
-3.8864 RIP -0.2218
-3.8864 RISE -0.2218
-3.8864 RITE -0.2218
-3.8864 ROACH -0.2218
-3.8864 ROAD -0.2218
-3.8864 ROAM -0.2218
-3.8864 ROB -0.2218
-3.8864 ROBE -0.2218
-3.8864 ROCK -0.2218
-3.8864 ROCKER -0.2218
-3.8864 ROCKET -0.2218
-3.8864 ROOK -0.2218
-3.8864 ROOM -0.2218
-3.8864 ROOT -0.2218
-3.8864 ROPE -0.2218
-3.8864 ROSE -0.2218
-3.8864 ROT -0.2218
-3.8864 ROTE -0.2218
-3.8864 ROUT -0.2218
-3.8864 ROUTE -0.2218
-3.8864 ROVES -0.2218
-3.8864 ROYAL -0.2218
-3.8864 RUBBER -0.2218
-3.8864 RUBBLE -0.2218
-3.8864 RUCK -0.2218
-3.8864 RUG -0.2218
-3.8864 RUM -0.2218
-3.8864 RUMP -0.2218
-3.8864 RUN -0.2218
-3.8864 RUNG -0.2218
-3.8864 RUSH -0.2218
-3.8864 RUSHED -0.2218
-3.8864 RUST -0.2218
-3.8864 S -0.2218
-3.8864 SACK -0.2218
-3.8864 SAG -0.2218
-3.8864 SAID -0.2218
-3.8864 SAIL -0.2218
-3.8864 SAINT -0.2218
-3.8864 SAKE -0.2218
-3.8864 SAKES -0.2218
-3.8864 SALE -0.2218
-3.8864 SALLY -0.2218
-3.8864 SAME -0.2218
-3.8864 SAND -0.2218
-3.8864 SANE -0.2218
-3.8864 SANG -0.2218
-3.8864 SANK -0.2218
-3.8864 SAP -0.2218
-3.8864 SAPPER -0.2218
-3.8864 SARGE -0.2218
-3.8864 SASH -0.2218
-3.8864 SASS -0.2218
-3.8864 SATE -0.2218
-3.8864 SAVE -0.2218
-3.8864 SAW -0.2218
-3.8864 SAWN -0.2218
-3.8864 SAX -0.2218
-3.8864 SCAM -0.2218
-3.8864 SCAN -0.2218
-3.8864 SCENE -0.2218
-3.8864 SCONE -0.2218
-3.8864 SCORN -0.2218
-3.8864 SCOT -0.2218
-3.8864 SCOTCH -0.2218
-3.8864 SCRAM -0.2218
-3.8864 SCRUM -0.2218
-3.8864 SCUM -0.2218
-3.8864 SCYTHE -0.2218
-3.8864 SEA -0.2218
-3.8864 SEAL -0.2218
-3.8864 SEAM -0.2218
-3.8864 SEAS -0.2218
-3.8864 SEAT -0.2218
-3.8864 SEE -0.2218
-3.8864 SEED -0.2218
-3.8864 SEEK -0.2218
-3.8864 SEEM -0.2218
-3.8864 SEEN -0.2218
-3.8864 SEEP -0.2218
-3.8864 SEER -0.2218
-3.8864 SEETHE -0.2218
-3.8864 SEIZE -0.2218
-3.8864 SELL -0.2218
-3.8864 SENT -0.2218
-3.8864 SERB -0.2218
-3.8864 SERVE -0.2218
-3.8864 SET -0.2218
-3.8864 SEW -0.2218
-3.8864 SEX -0.2218
-3.8864 SHACK -0.2218
-3.8864 SHACKS -0.2218
-3.8864 SHADE -0.2218
-3.8864 SHAG -0.2218
-3.8864 SHAKE -0.2218
-3.8864 SHALE -0.2218
-3.8864 SHAME -0.2218
-3.8864 SHANK -0.2218
-3.8864 SHARK -0.2218
-3.8864 SHARPER -0.2218
-3.8864 SHAVE -0.2218
-3.8864 SHE -0.2218
-3.8864 SHE'D -0.2218
-3.8864 SHE'LL -0.2218
-3.8864 SHE'S -0.2218
-3.8864 SHEATHE -0.2218
-3.8864 SHED -0.2218
-3.8864 SHEEN -0.2218
-3.8864 SHEEP -0.2218
-3.8864 SHEER -0.2218
-3.8864 SHEET -0.2218
-3.8864 SHELL -0.2218
-3.8864 SHERPA -0.2218
-3.5853 SHE__ -0.2218
-3.8864 SHE__L -0.2218
-3.8864 SHIFT -0.2218
-3.8864 SHILL -0.2218
-3.8864 SHIN -0.2218
-3.8864 SHINE -0.2218
-3.8864 SHINGLE -0.2218
-3.8864 SHIP -0.2218
-3.8864 SHIRK -0.2218
-3.8864 SHIT -0.2218
-3.8864 SHOCK -0.2218
-3.8864 SHOD -0.2218
-3.8864 SHOE -0.2218
-3.8864 SHOP -0.2218
-3.8864 SHORE -0.2218
-3.8864 SHORN -0.2218
-3.8864 SHORT -0.2218
-3.8864 SHOT -0.2218
-3.8864 SHOW -0.2218
-3.8864 SHOWN -0.2218
-3.8864 SHUCKS -0.2218
-3.8864 SHUN -0.2218
-3.8864 SHY -0.2218
-3.8864 SICK -0.2218
-3.8864 SIEGE -0.2218
-3.8864 SIFT -0.2218
-3.8864 SIGH -0.2218
-3.8864 SIGHS -0.2218
-3.8864 SIGN -0.2218
-3.8864 SILL -0.2218
-3.8864 SIM -0.2218
-3.8864 SIN -0.2218
-3.8864 SINE -0.2218
-3.8864 SING -0.2218
-3.8864 SINGLE -0.2218
-3.8864 SINK -0.2218
-3.8864 SIP -0.2218
-3.8864 SIT -0.2218
-3.8864 SIZE -0.2218
-3.8864 SKIM -0.2218
-3.8864 SKIN -0.2218
-3.8864 SLAG -0.2218
-3.8864 SLAM -0.2218
-3.8864 SLANG -0.2218
-3.8864 SLASH -0.2218
-3.8864 SLAT -0.2218
-3.8864 SLED -0.2218
-3.8864 SLEDGE -0.2218
-3.8864 SLUG -0.2218
-3.8864 SLUM -0.2218
-3.8864 SLUNG -0.2218
-3.8864 SLUSH -0.2218
-3.8864 SLUT -0.2218
-3.8864 SNORE -0.2218
-3.8864 SNOW -0.2218
-3.8864 SO -0.2218
-3.8864 SOCK -0.2218
-3.8864 SOD -0.2218
-3.8864 SOFA -0.2218
-3.8864 SOME -0.2218
-3.8864 SON -0.2218
-3.8864 SONG -0.2218
-3.8864 SOOTHE -0.2218
-3.8864 SOP -0.2218
-3.8864 SORE -0.2218
-3.8864 SORT -0.2218
-3.8864 SOT -0.2218
-3.8864 SOUGHT -0.2218
-3.8864 SPADE -0.2218
-3.8864 SPAM -0.2218
-3.8864 SPAN -0.2218
-3.8864 SPATIAL -0.2218
-3.8864 SPECIAL -0.2218
-3.8864 SPED -0.2218
-3.8864 SPERM -0.2218
-3.8864 SPLAT -0.2218
-3.8864 SPLINT -0.2218
-3.8864 SPRAT -0.2218
-3.8864 SPRINT -0.2218
-3.8864 SPURN -0.2218
-3.8864 STAB -0.2218
-3.8864 STACK -0.2218
-3.8864 STAND -0.2218
-3.8864 STANK -0.2218
-3.8864 STAR -0.2218
-3.8864 STARCH -0.2218
-3.8864 START -0.2218
-3.8864 STAYED -0.2218
-3.8864 STEAD -0.2218
-3.8864 STIR -0.2218
-3.8864 STOKE -0.2218
-3.8864 STORE -0.2218
-3.8864 STORK -0.2218
-3.8864 STOW -0.2218
-3.8864 STUB -0.2218
-3.8864 STUCK -0.2218
-3.8864 STUN -0.2218
-3.8864 STUNG -0.2218
-3.8864 STUNK -0.2218
-3.8864 STUNNED -0.2218
-3.8864 SUCK -0.2218
-3.8864 SUCKS -0.2218
-3.8864 SUDS -0.2218
-3.8864 SUE -0.2218
-3.8864 SUES -0.2218
-3.8864 SULLY -0.2218
-3.8864 SUM -0.2218
-3.8864 SUMP -0.2218
-3.8864 SUN -0.2218
-3.8864 SUNG -0.2218
-3.8864 SUNK -0.2218
-3.8864 SUNNED -0.2218
-3.8864 SUP -0.2218
-3.8864 SUPPER -0.2218
-3.8864 SURE -0.2218
-3.8864 SURGE -0.2218
-3.8864 SWAM -0.2218
-3.8864 SWUM -0.2218
-3.8864 SYMBOL -0.2218
-3.8864 TAB -0.2218
-3.8864 TACK -0.2218
-3.8864 TAG -0.2218
-3.8864 TAINT -0.2218
-3.8864 TAKE -0.2218
-3.8864 TALE -0.2218
-3.8864 TAN -0.2218
-3.8864 TANG -0.2218
-3.8864 TAP -0.2218
-3.8864 TAR -0.2218
-3.8864 TARPS -0.2218
-3.8864 TART -0.2218
-3.8864 TASTE -0.2218
-3.8864 TAT -0.2218
-3.8864 TAUGHT -0.2218
-3.8864 TEACH -0.2218
-3.8864 TEAK -0.2218
-3.8864 TEAM -0.2218
-3.8864 TEAR -0.2218
-3.8864 TEAS -0.2218
-3.8864 TEASE -0.2218
-3.8864 TEASING -0.2218
-3.8864 TEAT -0.2218
-3.8864 TECH -0.2218
-3.8864 TEEM -0.2218
-3.8864 TEEN -0.2218
-3.8864 TEETHE -0.2218
-3.8864 TEETHING -0.2218
-3.8864 TELL -0.2218
-3.8864 TENSE -0.2218
-3.8864 TENT -0.2218
-3.8864 TENTH -0.2218
-3.8864 TERM -0.2218
-3.8864 TERN -0.2218
-3.8864 TEST -0.2218
-3.8864 THANK -0.2218
-3.8864 THAW -0.2218
-3.8864 THEME -0.2218
-3.8864 THEN -0.2218
-3.8864 THICK -0.2218
-3.8864 THIGH -0.2218
-3.8864 THIMBLE -0.2218
-3.8864 THIN -0.2218
-3.8864 THING -0.2218
-3.8864 THINK -0.2218
-3.8864 THONG -0.2218
-3.8864 THORN -0.2218
-3.8864 THOUGHT -0.2218
-3.8864 THRASH -0.2218
-3.8864 THRUSH -0.2218
-3.8864 THUDS -0.2218
-3.8864 THUMB -0.2218
-3.8864 THUMP -0.2218
-3.8864 THYME -0.2218
-3.8864 TICK -0.2218
-3.8864 TIDE -0.2218
-3.8864 TIES -0.2218
-3.8864 TILED -0.2218
-3.8864 TILL -0.2218
-3.8864 TIME -0.2218
-3.8864 TIN -0.2218
-3.8864 TINE -0.2218
-3.8864 TING -0.2218
-3.8864 TIP -0.2218
-3.8864 TIT -0.2218
-3.8864 TITHE -0.2218
-3.8864 TOE -0.2218
-3.8864 TOES -0.2218
-3.8864 TOKE -0.2218
-3.8864 TOMB -0.2218
-3.8864 TOME -0.2218
-3.8864 TON -0.2218
-3.8864 TONE -0.2218
-3.8864 TONGUE -0.2218
-3.8864 TOO -0.2218
-3.8864 TOON -0.2218
-3.8864 TOP -0.2218
-3.8864 TORCH -0.2218
-3.8864 TORE -0.2218
-3.8864 TORN -0.2218
-3.8864 TORT -0.2218
-3.8864 TOTE -0.2218
-3.8864 TOUCH -0.2218
-3.8864 TOUR -0.2218
-3.8864 TRACK -0.2218
-3.8864 TRADE -0.2218
-3.8864 TRAINED -0.2218
-3.8864 TRAMPS -0.2218
-3.8864 TRAMS -0.2218
-3.8864 TRANS- -0.2218
-3.8864 TREAD -0.2218
-3.8864 TREND -0.2218
-3.8864 TRUCE -0.2218
-3.8864 TRUCK -0.2218
-3.8864 TRUMPS -0.2218
-3.8864 TRUTH -0.2218
-3.8864 TS -0.2218
-3.8864 TUB -0.2218
-3.8864 TUBBY -0.2218
-3.8864 TUCK -0.2218
-3.8864 TUFT -0.2218
-3.8864 TUG -0.2218
-3.8864 TURN -0.2218
-3.8864 TURPS -0.2218
-3.8864 TUT -0.2218
-3.8864 TWIT -0.2218
-3.8864 TWITCH -0.2218
-3.8864 TWO -0.2218
-3.8864 TWOS -0.2218
-3.8864 UNCLE -0.2218
-3.8864 USE -0.2218
-3.8864 VAN -0.2218
-3.8864 VAT -0.2218
-3.8864 VEER -0.2218
-3.8864 VEIL -0.2218
-3.8864 VEIN -0.2218
-3.8864 VEINED -0.2218
-3.8864 VEND -0.2218
-3.8864 VENT -0.2218
-3.8864 VERB -0.2218
-3.8864 VERVE -0.2218
-3.8864 VERY -0.2218
-3.8864 VID -0.2218
-3.8864 VILE -0.2218
-3.8864 VIZ -0.2218
-3.8864 VOLE -0.2218
-3.8864 VOLT -0.2218
-3.8864 VOTE -0.2218
-3.8864 VOW -0.2218
-3.8864 VOWELS -0.2218
-3.8864 VROOM -0.2218
-3.8864 WADE -0.2218
-3.8864 WAGE -0.2218
-3.8864 WAIST -0.2218
-3.8864 WAIT -0.2218
-3.8864 WAN -0.2218
-3.8864 WANE -0.2218
-3.8864 WANED -0.2218
-3.8864 WATCH -0.2218
-3.8864 WED -0.2218
-3.8864 WEDGE -0.2218
-3.8864 WEIGHED -0.2218
-3.8864 WELL -0.2218
-3.8864 WEND -0.2218
-3.8864 WEST -0.2218
-3.8864 WET -0.2218
-3.8864 WHALE -0.2218
-3.8864 WHAT -0.2218
-3.8864 WHEN -0.2218
-3.8864 WHICH -0.2218
-3.8864 WHIZZ -0.2218
-3.8864 WHOLE -0.2218
-3.8864 WHORE -0.2218
-3.8864 WHORES -0.2218
-3.8864 WIN -0.2218
-3.8864 WIND -0.2218
-3.8864 WING -0.2218
-3.8864 WINGED -0.2218
-3.8864 WIT -0.2218
-3.8864 WITCH -0.2218
-3.8864 WITH -0.2218
-3.8864 WON -0.2218
-3.8864 WORSE -0.2218
-3.8864 WORTH -0.2218
-3.8864 WRAITH -0.2218
-3.8864 WRAP -0.2218
-3.8864 WRECK -0.2218
-3.8864 WREN -0.2218
-3.8864 WRENCH -0.2218
-3.8864 WRIST -0.2218
-3.8864 WRIT -0.2218
-3.8864 WRITER -0.2218
-3.8864 WRONG -0.2218
-3.8864 WROTE -0.2218
-3.8864 X -0.2218
-3.8864 YOUTH -0.2218
-3.8864 ZEN -0.2218

\2-grams:
-3.4093 <s> ACE 0.0000
-3.4093 <s> ACHES 0.0000
-3.4093 <s> AGE 0.0000
-3.4093 <s> AIM 0.0000
-3.4093 <s> ALE 0.0000
-3.4093 <s> ALIVE 0.0000
-3.4093 <s> AM 0.0000
-3.4093 <s> AN 0.0000
-3.4093 <s> ANKLE 0.0000
-3.4093 <s> ARC 0.0000
-3.4093 <s> ARCH 0.0000
-3.4093 <s> ARRIVE 0.0000
-3.4093 <s> ART 0.0000
-3.4093 <s> ASH 0.0000
-3.4093 <s> ASS 0.0000
-3.4093 <s> AWED 0.0000
-3.4093 <s> BACK 0.0000
-3.4093 <s> BAD 0.0000
-3.4093 <s> BADE 0.0000
-3.4093 <s> BADGE 0.0000
-3.4093 <s> BAG 0.0000
-3.4093 <s> BAIL 0.0000
-3.4093 <s> BAIT 0.0000
-3.4093 <s> BAIZE 0.0000
-3.4093 <s> BAKE 0.0000
-3.4093 <s> BALE 0.0000
-3.4093 <s> BALL 0.0000
-3.4093 <s> BAN 0.0000
-3.4093 <s> BAND 0.0000
-3.4093 <s> BANE 0.0000
-3.4093 <s> BANG 0.0000
-3.4093 <s> BANGED 0.0000
-3.4093 <s> BANK 0.0000
-3.4093 <s> BANKER 0.0000
-3.4093 <s> BANNED 0.0000
-3.4093 <s> BAR 0.0000
-3.4093 <s> BARBS 0.0000
-3.4093 <s> BARD 0.0000
-3.4093 <s> BARGE 0.0000
-3.4093 <s> BARN 0.0000
-3.4093 <s> BARRED 0.0000
-3.4093 <s> BASED 0.0000
-3.4093 <s> BASH 0.0000
-3.4093 <s> BASS 0.0000
-3.4093 <s> BAT 0.0000
-3.4093 <s> BATCH 0.0000
-3.4093 <s> BATED 0.0000
-3.4093 <s> BATH 0.0000
-3.4093 <s> BATHE 0.0000
-3.4093 <s> BATTER 0.0000
-3.4093 <s> BAYS 0.0000
-3.4093 <s> BEACH 0.0000
-3.4093 <s> BEAM 0.0000
-3.4093 <s> BEAN 0.0000
-3.4093 <s> BEAT 0.0000
-3.4093 <s> BECK 0.0000
-3.4093 <s> BED 0.0000
-3.4093 <s> BEECH 0.0000
-3.4093 <s> BEEN 0.0000
-3.4093 <s> BEER 0.0000
-3.4093 <s> BEET 0.0000
-3.4093 <s> BEGAN 0.0000
-3.4093 <s> BEGUN 0.0000
-3.4093 <s> BELCH 0.0000
-3.4093 <s> BELL 0.0000
-3.4093 <s> BELLY 0.0000
-3.4093 <s> BELT 0.0000
-3.4093 <s> BENCH 0.0000
-3.4093 <s> BENT 0.0000
-3.4093 <s> BERRY 0.0000
-3.4093 <s> BERTH 0.0000
-3.4093 <s> BEST 0.0000
-3.4093 <s> BET 0.0000
-3.4093 <s> BETTED 0.0000
-3.4093 <s> BID 0.0000
-3.4093 <s> BILE 0.0000
-3.4093 <s> BIRD 0.0000
-3.4093 <s> BIRTH 0.0000
-3.4093 <s> BIT 0.0000
-3.4093 <s> BITCH 0.0000
-3.4093 <s> BITCHY 0.0000
-3.4093 <s> BITTY 0.0000
-3.4093 <s> BIZ 0.0000
-3.4093 <s> BLABBER 0.0000
-3.4093 <s> BLACKEN 0.0000
-3.4093 <s> BLADE 0.0000
-3.4093 <s> BLAH 0.0000
-3.4093 <s> BLAIN 0.0000
-3.4093 <s> BLAME 0.0000
-3.4093 <s> BLEACH 0.0000
-3.4093 <s> BLEAT 0.0000
-3.4093 <s> BLED 0.0000
-3.4093 <s> BLEW 0.0000
-3.4093 <s> BLIGHT 0.0000
-3.4093 <s> BLOT 0.0000
-3.4093 <s> BLOTCH 0.0000
-3.4093 <s> BLUBBER 0.0000
-3.4093 <s> BLUE 0.0000
-3.4093 <s> BLUES 0.0000
-3.4093 <s> BLUR 0.0000
-3.4093 <s> BLUSH 0.0000
-3.4093 <s> BOAT 0.0000
-3.4093 <s> BODE 0.0000
-3.4093 <s> BOLT 0.0000
-3.4093 <s> BONGS 0.0000
-3.4093 <s> BONZE 0.0000
-3.4093 <s> BOOM 0.0000
-3.4093 <s> BOON 0.0000
-3.4093 <s> BORE 0.0000
-3.4093 <s> BORED 0.0000
-3.4093 <s> BOSH 0.0000
-3.4093 <s> BOSS 0.0000
-3.4093 <s> BOT 0.0000
-3.4093 <s> BOTCH 0.0000
-3.4093 <s> BOUGHT 0.0000
-3.4093 <s> BOW 0.0000
-3.4093 <s> BOWELS 0.0000
-3.4093 <s> BOWL 0.0000
-3.4093 <s> BRACED 0.0000
-3.4093 <s> BRACKEN 0.0000
-3.4093 <s> BRAID 0.0000
-3.4093 <s> BRASH 0.0000
-3.4093 <s> BREAD 0.0000
-3.4093 <s> BREAST 0.0000
-3.4093 <s> BREATHE 0.0000
-3.4093 <s> BREEZE 0.0000
-3.4093 <s> BREW 0.0000
-3.4093 <s> BRIGHT 0.0000
-3.4093 <s> BROOM 0.0000
-3.4093 <s> BRUISE 0.0000
-3.4093 <s> BRUSH 0.0000
-3.4093 <s> BUCK 0.0000
-3.4093 <s> BUD 0.0000
-3.4093 <s> BUDGE 0.0000
-3.4093 <s> BUG 0.0000
-3.4093 <s> BUN 0.0000
-3.4093 <s> BUNG 0.0000
-3.4093 <s> BUNK 0.0000
-3.4093 <s> BUNKER 0.0000
-3.4093 <s> BURBS 0.0000
-3.4093 <s> BURN 0.0000
-3.4093 <s> BURR 0.0000
-3.4093 <s> BURY 0.0000
-3.4093 <s> BUT 0.0000
-3.4093 <s> BUTTER 0.0000
-3.4093 <s> C 0.0000
-3.4093 <s> CAB 0.0000
-3.4093 <s> CAD 0.0000
-3.4093 <s> CADGE 0.0000
-3.4093 <s> CAM 0.0000
-3.4093 <s> CAME 0.0000
-3.4093 <s> CAN 0.0000
-3.4093 <s> CANE 0.0000
-3.4093 <s> CAP 0.0000
-3.4093 <s> CAR 0.0000
-3.4093 <s> CARBS 0.0000
-3.4093 <s> CARD 0.0000
-3.4093 <s> CART 0.0000
-3.4093 <s> CARVE 0.0000
-3.4093 <s> CAT 0.0000
-3.4093 <s> CATCH 0.0000
-3.4093 <s> CATCHY 0.0000
-3.4093 <s> CATTY 0.0000
-3.4093 <s> CHAIR 0.0000
-3.4093 <s> CHALK 0.0000
-3.4093 <s> CHAMP 0.0000
-3.4093 <s> CHAP 0.0000
-3.4093 <s> CHAR 0.0000
-3.4093 <s> CHARGE 0.0000
-3.4093 <s> CHARRED 0.0000
-3.4093 <s> CHART 0.0000
-3.4093 <s> CHASE 0.0000
-3.4093 <s> CHAT 0.0000
-3.4093 <s> CHAUFFEUR 0.0000
-3.4093 <s> CHEAT 0.0000
-3.4093 <s> CHEEK 0.0000
-3.4093 <s> CHEER 0.0000
-3.4093 <s> CHEESE 0.0000
-3.4093 <s> CHESS 0.0000
-3.4093 <s> CHEST 0.0000
-3.4093 <s> CHEW 0.0000
-3.4093 <s> CHIC 0.0000
-3.4093 <s> CHICK 0.0000
-3.4093 <s> CHIDE 0.0000
-3.4093 <s> CHILD 0.0000
-3.4093 <s> CHILL 0.0000
-3.4093 <s> CHIME 0.0000
-3.4093 <s> CHIN 0.0000
-3.4093 <s> CHING 0.0000
-3.4093 <s> CHIP 0.0000
-3.4093 <s> CHIRPS 0.0000
-3.4093 <s> CHIT 0.0000
-3.4093 <s> CHOKE 0.0000
-3.4093 <s> CHOOSE 0.0000
-3.4093 <s> CHOP 0.0000
-3.4093 <s> CHORE 0.0000
-3.4093 <s> CHORES 0.0000
-3.4093 <s> CHOSE 0.0000
-3.4093 <s> CHUBBY 0.0000
-3.4093 <s> CHUFFED 0.0000
-3.4093 <s> CHUG 0.0000
-3.4093 <s> CHUMP 0.0000
-3.4093 <s> CHURN 0.0000
-3.4093 <s> CLAM 0.0000
-3.4093 <s> CLAN 0.0000
-3.4093 <s> CLANG 0.0000
-3.4093 <s> CLASH 0.0000
-3.4093 <s> CLAWS 0.0000
-3.4093 <s> CLOSE 0.0000
-3.4093 <s> CLOSING 0.0000
-3.4093 <s> CLOTHE 0.0000
-3.4093 <s> CLOTHING 0.0000
-3.4093 <s> CLOWN 0.0000
-3.4093 <s> COACH 0.0000
-3.4093 <s> COAST 0.0000
-3.4093 <s> COAT 0.0000
-3.4093 <s> CODE 0.0000
-3.4093 <s> COKE 0.0000
-3.4093 <s> COLLECT 0.0000
-3.4093 <s> COMB 0.0000
-3.4093 <s> COME 0.0000
-3.4093 <s> CONE 0.0000
-3.4093 <s> COPES 0.0000
-3.4093 <s> CORD 0.0000
-3.4093 <s> CORK 0.0000
-3.4093 <s> CORN 0.0000
-3.4093 <s> CORPSE 0.0000
-3.4093 <s> CORRECT 0.0000
-3.4093 <s> COSHED 0.0000
-3.4093 <s> COST 0.0000
-3.4093 <s> COURSED 0.0000
-3.4093 <s> CRAM 0.0000
-3.4093 <s> CRASH 0.0000
-3.4093 <s> CRASS 0.0000
-3.4093 <s> CRAW 0.0000
-3.4093 <s> CROW 0.0000
-3.4093 <s> CROWN 0.0000
-3.4093 <s> CRUMB 0.0000
-3.4093 <s> CRUSH 0.0000
-3.4093 <s> CRUSHED 0.0000
-3.4093 <s> CRUST 0.0000
-3.4093 <s> CS 0.0000
-3.4093 <s> CUB 0.0000
-3.4093 <s> CUP 0.0000
-3.4093 <s> CUR 0.0000
-3.4093 <s> CURB 0.0000
-3.4093 <s> CURBS 0.0000
-3.4093 <s> CURD 0.0000
-3.4093 <s> CURT 0.0000
-3.4093 <s> CURVE 0.0000
-3.4093 <s> CUT 0.0000
-3.4093 <s> DAB 0.0000
-3.4093 <s> DABBLE 0.0000
-3.4093 <s> DAD 0.0000
-3.4093 <s> DALE 0.0000
-3.4093 <s> DAM 0.0000
-3.4093 <s> DAMN 0.0000
-3.4093 <s> DAMP 0.0000
-3.4093 <s> DANGLE 0.0000
-3.4093 <s> DANK 0.0000
-3.4093 <s> DART 0.0000
-3.4093 <s> DATE 0.0000
-3.4093 <s> DAWN 0.0000
-3.4093 <s> DAY 0.0000
-3.4093 <s> DEAN 0.0000
-3.4093 <s> DEANS 0.0000
-3.4093 <s> DEAR 0.0000
-3.4093 <s> DEBT 0.0000
-3.4093 <s> DEEM 0.0000
-3.4093 <s> DEEP 0.0000
-3.4093 <s> DEIGN 0.0000
-3.4093 <s> DELL 0.0000
-3.4093 <s> DEN 0.0000
-3.4093 <s> DIG 0.0000
-3.4093 <s> DIM 0.0000
-3.4093 <s> DIME 0.0000
-3.4093 <s> DIN 0.0000
-3.4093 <s> DINE 0.0000
-3.4093 <s> DING 0.0000
-3.4093 <s> DINK 0.0000
-3.4093 <s> DINKS 0.0000
-3.4093 <s> DIRT 0.0000
-3.4093 <s> DISSED 0.0000
-3.4093 <s> DIVE 0.0000
-3.4093 <s> DO 0.0000
-3.4093 <s> DOB 0.0000
-3.4093 <s> DOCK 0.0000
-3.4093 <s> DOE 0.0000
-3.4093 <s> DOG 0.0000
-3.4093 <s> DOME 0.0000
-3.4093 <s> DON 0.0000
-3.4093 <s> DONE 0.0000
-3.4093 <s> DONG 0.0000
-3.4093 <s> DOOR 0.0000
-3.4093 <s> DOORS 0.0000
-3.4093 <s> DORM 0.0000
-3.4093 <s> DOSH 0.0000
-3.4093 <s> DOSS 0.0000
-3.4093 <s> DOT 0.0000
-3.4093 <s> DOUBLE 0.0000
-3.4093 <s> DOUSED 0.0000
-3.4093 <s> DOVE 0.0000
-3.4093 <s> DOZE 0.0000
-3.4093 <s> DRAM 0.0000
-3.4093 <s> DRANK 0.0000
-3.4093 <s> DRAWN 0.0000
-3.4093 <s> DREAD 0.0000
-3.4093 <s> DREDGE 0.0000
-3.4093 <s> DRIBBLE 0.0000
-3.4093 <s> DRIVEL 0.0000
-3.4093 <s> DRONE 0.0000
-3.4093 <s> DRUM 0.0000
-3.4093 <s> DRUNK 0.0000
-3.4093 <s> DS 0.0000
-3.4093 <s> DUB 0.0000
-3.4093 <s> DUD 0.0000
-3.4093 <s> DUG 0.0000
-3.4093 <s> DUMB 0.0000
-3.4093 <s> DUMP 0.0000
-3.4093 <s> DUN 0.0000
-3.4093 <s> DUNG 0.0000
-3.4093 <s> DUNK 0.0000
-3.4093 <s> DUST 0.0000
-3.4093 <s> EACH 0.0000
-3.4093 <s> EAT 0.0000
-3.4093 <s> EDGE 0.0000
-3.4093 <s> ETCH 0.0000
-3.4093 <s> FACE 0.0000
-3.4093 <s> FACED 0.0000
-3.4093 <s> FAD 0.0000
-3.4093 <s> FADE 0.0000
-3.4093 <s> FAG 0.0000
-3.4093 <s> FAIL 0.0000
-3.4093 <s> FAIR 0.0000
-3.4093 <s> FAITH 0.0000
-3.4093 <s> FALL 0.0000
-3.4093 <s> FAME 0.0000
-3.4093 <s> FAN 0.0000
-3.4093 <s> FANG 0.0000
-3.4093 <s> FANNED 0.0000
-3.4093 <s> FAR 0.0000
-3.4093 <s> FARE 0.0000
-3.4093 <s> FARM 0.0000
-3.4093 <s> FART 0.0000
-3.4093 <s> FAST 0.0000
-3.4093 <s> FAT 0.0000
-3.4093 <s> FATE 0.0000
-3.4093 <s> FAWN 0.0000
-3.4093 <s> FEAR 0.0000
-3.4093 <s> FED 0.0000
-3.4093 <s> FEE 0.0000
-3.4093 <s> FEED 0.0000
-3.4093 <s> FEEL 0.0000
-3.4093 <s> FEES 0.0000
-3.4093 <s> FEET 0.0000
-3.4093 <s> FEIGN 0.0000
-3.4093 <s> FEIGNED 0.0000
-3.4093 <s> FELL 0.0000
-3.4093 <s> FEN 0.0000
-3.4093 <s> FENCE 0.0000
-3.4093 <s> FEND 0.0000
-3.4093 <s> FEW 0.0000
-3.4093 <s> FEY 0.0000
-3.4093 <s> FEZ 0.0000
-3.4093 <s> FIBRE 0.0000
-3.4093 <s> FIGHT 0.0000
-3.4093 <s> FILL 0.0000
-3.4093 <s> FIR 0.0000
-3.4093 <s> FIRM 0.0000
-3.4093 <s> FIRST 0.0000
-3.4093 <s> FISHED 0.0000
-3.4093 <s> FIST 0.0000
-3.4093 <s> FIT 0.0000
-3.4093 <s> FIVE 0.0000
-3.4093 <s> FIVER 0.0000
-3.4093 <s> FIZZ 0.0000
-3.4093 <s> FLAKE 0.0000
-3.4093 <s> FLAME 0.0000
-3.4093 <s> FLANK 0.0000
-3.4093 <s> FLASH 0.0000
-3.4093 <s> FLAX 0.0000
-3.4093 <s> FLAYED 0.0000
-3.4093 <s> FLEA 0.0000
-3.4093 <s> FLEAS 0.0000
-3.4093 <s> FLECK 0.0000
-3.4093 <s> FLED 0.0000
-3.4093 <s> FLEE 0.0000
-3.4093 <s> FLEES 0.0000
-3.4093 <s> FLINCH 0.0000
-3.4093 <s> FLINT 0.0000
-3.4093 <s> FLUNK 0.0000
-3.4093 <s> FLUSH 0.0000
-3.4093 <s> FLUX 0.0000
-3.4093 <s> FLY 0.0000
-3.4093 <s> FOAL 0.0000
-3.4093 <s> FOAM 0.0000
-3.4093 <s> FOB 0.0000
-3.4093 <s> FOE 0.0000
-3.4093 <s> FOES 0.0000
-3.4093 <s> FOG 0.0000
-3.4093 <s> FOLK 0.0000
-3.4093 <s> FOP 0.0000
-3.4093 <s> FORCE 0.0000
-3.4093 <s> FORD 0.0000
-3.4093 <s> FORE 0.0000
-3.4093 <s> FORGE 0.0000
-3.4093 <s> FORK 0.0000
-3.4093 <s> FORM 0.0000
-3.4093 <s> FOUND 0.0000
-3.4093 <s> FOUR 0.0000
-3.4093 <s> FOURTH 0.0000
-3.4093 <s> FOWL 0.0000
-3.4093 <s> FREE 0.0000
-3.4093 <s> FREEZE 0.0000
-3.4093 <s> FREIGHT 0.0000
-3.4093 <s> FRET 0.0000
-3.4093 <s> FRY 0.0000
-3.4093 <s> FUN 0.0000
-3.4093 <s> FUND 0.0000
-3.4093 <s> FUNKY 0.0000
-3.4093 <s> FUNNY 0.0000
-3.4093 <s> FUR 0.0000
-3.4093 <s> FURL 0.0000
-3.4093 <s> GAIN 0.0000
-3.4093 <s> GALL 0.0000
-3.4093 <s> GAME 0.0000
-3.4093 <s> GAS 0.0000
-3.4093 <s> GASH 0.0000
-3.4093 <s> GATE 0.0000
-3.4093 <s> GEEZ 0.0000
-3.4093 <s> GEL 0.0000
-3.4093 <s> GET 0.0000
-3.4093 <s> GIN 0.0000
-3.4093 <s> GIRD 0.0000
-3.4093 <s> GIST 0.0000
-3.4093 <s> GLAM 0.0000
-3.4093 <s> GLAMOUR 0.0000
-3.4093 <s> GLAND 0.0000
-3.4093 <s> GLASS 0.0000
-3.4093 <s> GLEAM 0.0000
-3.4093 <s> GLEAN 0.0000
-3.4093 <s> GLOW 0.0000
-3.4093 <s> GLUM 0.0000
-3.4093 <s> GNAT 0.0000
-3.4093 <s> GNAWED 0.0000
-3.4093 <s> GNOME 0.0000
-3.4093 <s> GO 0.0000
-3.4093 <s> GOAD 0.0000
-3.4093 <s> GOAL 0.0000
-3.4093 <s> GONE 0.0000
-3.4093 <s> GONG 0.0000
-3.4093 <s> GORE 0.0000
-3.4093 <s> GORED 0.0000
-3.4093 <s> GORGE 0.0000
-3.4093 <s> GRAB 0.0000
-3.4093 <s> GRAM 0.0000
-3.4093 <s> GRAMMAR 0.0000
-3.4093 <s> GRAN 0.0000
-3.4093 <s> GRAND 0.0000
-3.4093 <s> GRASS 0.0000
-3.4093 <s> GRIM 0.0000
-3.4093 <s> GRIN 0.0000
-3.4093 <s> GROSS 0.0000
-3.4093 <s> GROW 0.0000
-3.4093 <s> GROWTH 0.0000
-3.4093 <s> GRUB 0.0000
-3.4093 <s> GUARD 0.0000
-3.4093 <s> GUM 0.0000
-3.4093 <s> GUN 0.0000
-3.4093 <s> GUSH 0.0000
-3.4093 <s> GUSHED 0.0000
-3.4093 <s> GUST 0.0000
-3.4093 <s> GYM 0.0000
-3.4093 <s> H 0.0000
-3.4093 <s> HA 0.0000
-3.4093 <s> HAD 0.0000
-3.4093 <s> HAG 0.0000
-3.4093 <s> HAIL 0.0000
-3.4093 <s> HAIR 0.0000
-3.4093 <s> HAKE 0.0000
-3.4093 <s> HAKES 0.0000
-3.4093 <s> HALL 0.0000
-3.4093 <s> HAM 0.0000
-3.4093 <s> HAND 0.0000
-3.4093 <s> HANG 0.0000
-3.4093 <s> HANGED 0.0000
-3.4093 <s> HANKER 0.0000
-3.4093 <s> HARD 0.0000
-3.4093 <s> HARE 0.0000
-3.4093 <s> HARM 0.0000
-3.4093 <s> HARPIES 0.0000
-3.4093 <s> HASH 0.0000
-3.4093 <s> HASTE 0.0000
-3.4093 <s> HAT 0.0000
-3.4093 <s> HATCH 0.0000
-3.4093 <s> HATE 0.0000
-3.4093 <s> HAW 0.0000
-3.4093 <s> HAY 0.0000
-3.4093 <s> HAZE 0.0000
-3.4093 <s> HE 0.0000
-3.4093 <s> HE'LL 0.0000
-3.4093 <s> HE'S 0.0000
-3.4093 <s> HEAD 0.0000
-3.4093 <s> HEAR 0.0000
-3.4093 <s> HEARD 0.0000
-3.4093 <s> HEART 0.0000
-3.4093 <s> HEAT 0.0000
-3.4093 <s> HECK 0.0000
-3.4093 <s> HEDGE 0.0000
-3.4093 <s> HEEL 0.0000
-3.4093 <s> HEIGHT 0.0000
-3.4093 <s> HELL 0.0000
-3.4093 <s> HENCE 0.0000
-3.4093 <s> HER 0.0000
-3.4093 <s> HERD 0.0000
-3.4093 <s> HERPES 0.0000
-3.4093 <s> HEW 0.0000
-3.4093 <s> HEX 0.0000
-3.4093 <s> HE__ 0.0000
-3.4093 <s> HILL 0.0000
-3.4093 <s> HIS 0.0000
-3.4093 <s> HIT 0.0000
-3.4093 <s> HITCH 0.0000
-3.4093 <s> HIVE 0.0000
-3.4093 <s> HOB 0.0000
-3.4093 <s> HOE 0.0000
-3.4093 <s> HOG 0.0000
-3.4093 <s> HOME 0.0000
-3.4093 <s> HONE 0.0000
-3.4093 <s> HONEY 0.0000
-3.4093 <s> HOOCH 0.0000
-3.4093 <s> HOOT 0.0000
-3.4093 <s> HOP 0.0000
-3.4093 <s> HORN 0.0000
-3.4093 <s> HORSE 0.0000
-3.4093 <s> HOSE 0.0000
-3.4093 <s> HOUND 0.0000
-3.4093 <s> HOWL 0.0000
-3.4093 <s> HUG 0.0000
-3.4093 <s> HUM 0.0000
-3.4093 <s> HUN 0.0000
-3.4093 <s> HUNCH 0.0000
-3.4093 <s> HUNG 0.0000
-3.4093 <s> HUNKER 0.0000
-3.4093 <s> HUNKY 0.0000
-3.4093 <s> HUNT 0.0000
-3.4093 <s> HURL 0.0000
-3.4093 <s> HURT 0.0000
-3.4093 <s> HUSH 0.0000
-3.4093 <s> HUT 0.0000
-3.4093 <s> HUTCH 0.0000
-3.4093 <s> IMPLODE 0.0000
-3.4093 <s> IMPLORED 0.0000
-3.4093 <s> IRK 0.0000
-3.4093 <s> IT 0.0000
-3.4093 <s> ITCH 0.0000
-3.4093 <s> J 0.0000
-3.4093 <s> JAB 0.0000
-3.4093 <s> JAG 0.0000
-3.4093 <s> JAIL 0.0000
-3.4093 <s> JAM 0.0000
-3.4093 <s> JANGLE 0.0000
-3.4093 <s> JAW 0.0000
-3.4093 <s> JAY 0.0000
-3.4093 <s> JEANS 0.0000
-3.4093 <s> JEEP 0.0000
-3.4093 <s> JEER 0.0000
-3.4093 <s> JELLY 0.0000
-3.4093 <s> JERRY 0.0000
-3.4093 <s> JET 0.0000
-3.4093 <s> JEW 0.0000
-3.4093 <s> JIBE 0.0000
-3.4093 <s> JIG 0.0000
-3.4093 <s> JINK 0.0000
-3.4093 <s> JINX 0.0000
-3.4093 <s> JIVE 0.0000
-3.4093 <s> JOB 0.0000
-3.4093 <s> JOCK 0.0000
-3.4093 <s> JOE 0.0000
-3.4093 <s> JOG 0.0000
-3.4093 <s> JOSH 0.0000
-3.4093 <s> JOSS 0.0000
-3.4093 <s> JOT 0.0000
-3.4093 <s> JOUST 0.0000
-3.4093 <s> JUG 0.0000
-3.4093 <s> JUMP 0.0000
-3.4093 <s> JUNK 0.0000
-3.4093 <s> JUST 0.0000
-3.4093 <s> KEN 0.0000
-3.4093 <s> KICK 0.0000
-3.4093 <s> KIN 0.0000
-3.4093 <s> KING 0.0000
-3.4093 <s> KISS 0.0000
-3.4093 <s> KIT 0.0000
-3.4093 <s> KITH 0.0000
-3.4093 <s> KITSCH 0.0000
-3.4093 <s> KNOW 0.0000
-3.4093 <s> KNOWN 0.0000
-3.4093 <s> KURD 0.0000
-3.4093 <s> L 0.0000
-3.4093 <s> LACE 0.0000
-3.4093 <s> LACED 0.0000
-3.4093 <s> LACK 0.0000
-3.4093 <s> LAG 0.0000
-3.4093 <s> LAGGING 0.0000
-3.4093 <s> LAID 0.0000
-3.4093 <s> LAIR 0.0000
-3.4093 <s> LAKE 0.0000
-3.4093 <s> LAMB 0.0000
-3.4093 <s> LAMP 0.0000
-3.4093 <s> LANE 0.0000
-3.4093 <s> LANES 0.0000
-3.4093 <s> LANK 0.0000
-3.4093 <s> LAP 0.0000
-3.4093 <s> LASH 0.0000
-3.4093 <s> LATE 0.0000
-3.4093 <s> LATHE 0.0000
-3.4093 <s> LATHER 0.0000
-3.4093 <s> LAW 0.0000
-3.4093 <s> LAY 0.0000
-3.4093 <s> LAZE 0.0000
-3.4093 <s> LEAD 0.0000
-3.4093 <s> LEADER 0.0000
-3.4093 <s> LEAP 0.0000
-3.4093 <s> LED 0.0000
-3.4093 <s> LEDGE 0.0000
-3.4093 <s> LEECH 0.0000
-3.4093 <s> LEEK 0.0000
-3.4093 <s> LEER 0.0000
-3.4093 <s> LENS 0.0000
-3.4093 <s> LENTIL 0.0000
-3.4093 <s> LESS 0.0000
-3.4093 <s> LEST 0.0000
-3.4093 <s> LET 0.0000
-3.4093 <s> LIB 0.0000
-3.4093 <s> LICE 0.0000
-3.4093 <s> LICK 0.0000
-3.4093 <s> LID 0.0000
-3.4093 <s> LIED 0.0000
-3.4093 <s> LIES 0.0000
-3.4093 <s> LIGHT 0.0000
-3.4093 <s> LIGHTER 0.0000
-3.4093 <s> LIMB 0.0000
-3.4093 <s> LIME 0.0000
-3.4093 <s> LINK 0.0000
-3.4093 <s> LINT 0.0000
-3.4093 <s> LIP 0.0000
-3.4093 <s> LIST 0.0000
-3.4093 <s> LIT 0.0000
-3.4093 <s> LITHE 0.0000
-3.4093 <s> LOAD 0.0000
-3.4093 <s> LOAM 0.0000
-3.4093 <s> LOATHE 0.0000
-3.4093 <s> LOAVES 0.0000
-3.4093 <s> LOB 0.0000
-3.4093 <s> LOBE 0.0000
-3.4093 <s> LOBES 0.0000
-3.4093 <s> LOCK 0.0000
-3.4093 <s> LOCKER 0.0000
-3.4093 <s> LOCKET 0.0000
-3.4093 <s> LONG 0.0000
-3.4093 <s> LOOK 0.0000
-3.4093 <s> LOOM 0.0000
-3.4093 <s> LOOT 0.0000
-3.4093 <s> LOPE 0.0000
-3.4093 <s> LORD 0.0000
-3.4093 <s> LOT 0.0000
-3.4093 <s> LOUT 0.0000
-3.4093 <s> LOW 0.0000
-3.4093 <s> LOWS 0.0000
-3.4093 <s> LOYAL 0.0000
-3.4093 <s> LUBBER 0.0000
-3.4093 <s> LUCK 0.0000
-3.4093 <s> LUG 0.0000
-3.4093 <s> LUMP 0.0000
-3.4093 <s> LUNG 0.0000
-3.4093 <s> LUSH 0.0000
-3.4093 <s> LUST 0.0000
-3.4093 <s> LUTE 0.0000
-3.4093 <s> LYNCH 0.0000
-3.4093 <s> M 0.0000
-3.4093 <s> MACE 0.0000
-3.4093 <s> MAD 0.0000
-3.4093 <s> MAIN 0.0000
-3.4093 <s> MAM 0.0000
-3.4093 <s> MAN 0.0000
-3.4093 <s> MARCH 0.0000
-3.4093 <s> MART 0.0000
-3.4093 <s> MASH 0.0000
-3.4093 <s> MASS 0.0000
-3.4093 <s> MASSED 0.0000
-3.4093 <s> MAT 0.0000
-3.4093 <s> MATCH 0.0000
-3.4093 <s> MATE 0.0000
-3.4093 <s> MATH 0.0000
-3.4093 <s> MAUL 0.0000
-3.4093 <s> MEAN 0.0000
-3.4093 <s> MEME 0.0000
-3.4093 <s> MEN 0.0000
-3.4093 <s> MESH 0.0000
-3.4093 <s> MESS 0.0000
-3.4093 <s> MET 0.0000
-3.4093 <s> MID 0.0000
-3.4093 <s> MIDGE 0.0000
-3.4093 <s> MISS 0.0000
-3.4093 <s> MOAN 0.0000
-3.4093 <s> MOANING 0.0000
-3.4093 <s> MOLE 0.0000
-3.4093 <s> MOOCH 0.0000
-3.4093 <s> MOOT 0.0000
-3.4093 <s> MORE 0.0000
-3.4093 <s> MORNING 0.0000
-3.4093 <s> MORTAR 0.0000
-3.4093 <s> MOSH 0.0000
-3.4093 <s> MOSS 0.0000
-3.4093 <s> MOTH 0.0000
-3.4093 <s> MOTOR 0.0000
-3.4093 <s> MOURN 0.0000
-3.4093 <s> MOUSE 0.0000
-3.4093 <s> MOUTH 0.0000
-3.4093 <s> MOW 0.0000
-3.4093 <s> MUCH 0.0000
-3.4093 <s> MUD 0.0000
-3.4093 <s> MUST 0.0000
-3.4093 <s> MUTT 0.0000
-3.4093 <s> MYTH 0.0000
-3.4093 <s> NODE 0.0000
-3.4093 <s> NOR 0.0000
-3.4093 <s> NORSE 0.0000
-3.4093 <s> NORTH 0.0000
-3.4093 <s> NOT 0.0000
-3.4093 <s> NOTCH 0.0000
-3.4093 <s> NOTE 0.0000
-3.4093 <s> NOUGHT 0.0000
-3.4093 <s> NUT 0.0000
-3.4093 <s> O 0.0000
-3.4093 <s> OAT 0.0000
-3.4093 <s> ODE 0.0000
-3.4093 <s> OR 0.0000
-3.4093 <s> OUCH 0.0000
-3.4093 <s> OUGHT 0.0000
-3.4093 <s> OUT 0.0000
-3.4093 <s> OWE 0.0000
-3.4093 <s> OWED 0.0000
-3.4093 <s> PA 0.0000
-3.4093 <s> PACK 0.0000
-3.4093 <s> PADDLE 0.0000
-3.4093 <s> PAGE 0.0000
-3.4093 <s> PAID 0.0000
-3.4093 <s> PAIN 0.0000
-3.4093 <s> PAINT 0.0000
-3.4093 <s> PAN 0.0000
-3.4093 <s> PANG 0.0000
-3.4093 <s> PAP 0.0000
-3.4093 <s> PAR 0.0000
-3.4093 <s> PARCH 0.0000
-3.4093 <s> PARCHED 0.0000
-3.4093 <s> PARK 0.0000
-3.4093 <s> PARP 0.0000
-3.4093 <s> PART 0.0000
-3.4093 <s> PASS 0.0000
-3.4093 <s> PASTE 0.0000
-3.4093 <s> PAT 0.0000
-3.4093 <s> PATCH 0.0000
-3.4093 <s> PATH 0.0000
-3.4093 <s> PATTER 0.0000
-3.4093 <s> PEACH 0.0000
-3.4093 <s> PEAT 0.0000
-3.4093 <s> PEN 0.0000
-3.4093 <s> PENT 0.0000
-3.4093 <s> PER 0.0000
-3.4093 <s> PERCH 0.0000
-3.4093 <s> PERCHED 0.0000
-3.4093 <s> PERK 0.0000
-3.4093 <s> PERP 0.0000
-3.4093 <s> PERT 0.0000
-3.4093 <s> PERTH 0.0000
-3.4093 <s> PEST 0.0000
-3.4093 <s> PHASE 0.0000
-3.4093 <s> PHLEGM 0.0000
-3.4093 <s> PHONE 0.0000
-3.4093 <s> PILOT 0.0000
-3.4093 <s> PIN 0.0000
-3.4093 <s> PING 0.0000
-3.4093 <s> PIRATE 0.0000
-3.4093 <s> PISS 0.0000
-3.4093 <s> PIT 0.0000
-3.4093 <s> PITCH 0.0000
-3.4093 <s> PITH 0.0000
-3.4093 <s> PLAY 0.0000
-3.4093 <s> PLAYED 0.0000
-3.4093 <s> PLED 0.0000
-3.4093 <s> PLEDGE 0.0000
-3.4093 <s> PLUS 0.0000
-3.4093 <s> PLUSH 0.0000
-3.4093 <s> POACH 0.0000
-3.4093 <s> POKE 0.0000
-3.4093 <s> POND 0.0000
-3.4093 <s> PONGED 0.0000
-3.4093 <s> PORCH 0.0000
-3.4093 <s> PORK 0.0000
-3.4093 <s> PORT 0.0000
-3.4093 <s> POUCH 0.0000
-3.4093 <s> POUT 0.0000
-3.4093 <s> PRAY 0.0000
-3.4093 <s> PUCK 0.0000
-3.4093 <s> PUDDLE 0.0000
-3.4093 <s> PUN 0.0000
-3.4093 <s> PUNCH 0.0000
-3.4093 <s> PUNT 0.0000
-3.4093 <s> PUP 0.0000
-3.4093 <s> PURGE 0.0000
-3.4093 <s> PURR 0.0000
-3.4093 <s> PURRED 0.0000
-3.4093 <s> PURSE 0.0000
-3.4093 <s> PUSH 0.0000
-3.4093 <s> PUSS 0.0000
-3.4093 <s> PUTT 0.0000
-3.4093 <s> PUTTER 0.0000
-3.4093 <s> QUARK 0.0000
-3.4093 <s> QUART 0.0000
-3.4093 <s> QUICK 0.0000
-3.4093 <s> QUIRK 0.0000
-3.4093 <s> QUOTE 0.0000
-3.4093 <s> RABBLE 0.0000
-3.4093 <s> RACE 0.0000
-3.4093 <s> RACED 0.0000
-3.4093 <s> RACK 0.0000
-3.4093 <s> RAG 0.0000
-3.4093 <s> RAGE 0.0000
-3.4093 <s> RAGGING 0.0000
-3.4093 <s> RAID 0.0000
-3.4093 <s> RAIN 0.0000
-3.4093 <s> RAINED 0.0000
-3.4093 <s> RAISE 0.0000
-3.4093 <s> RAKE 0.0000
-3.4093 <s> RAM 0.0000
-3.4093 <s> RAMP 0.0000
-3.4093 <s> RAN 0.0000
-3.4093 <s> RANG 0.0000
-3.4093 <s> RANK 0.0000
-3.4093 <s> RARE 0.0000
-3.4093 <s> RASH 0.0000
-3.4093 <s> RATE 0.0000
-3.4093 <s> RATHER 0.0000
-3.4093 <s> RAW 0.0000
-3.4093 <s> RAY 0.0000
-3.4093 <s> RAZE 0.0000
-3.4093 <s> REACH 0.0000
-3.4093 <s> READ 0.0000
-3.4093 <s> READER 0.0000
-3.4093 <s> REAP 0.0000
-3.4093 <s> REAR 0.0000
-3.4093 <s> REBEL 0.0000
-3.4093 <s> RED 0.0000
-3.4093 <s> REED 0.0000
-3.4093 <s> REEK 0.0000
-3.4093 <s> REND 0.0000
-3.4093 <s> RENT 0.0000
-3.4093 <s> RENTAL 0.0000
-3.4093 <s> REST 0.0000
-3.4093 <s> REVEL 0.0000
-3.4093 <s> RHYME 0.0000
-3.4093 <s> RIB 0.0000
-3.4093 <s> RICE 0.0000
-3.4093 <s> RICH 0.0000
-3.4093 <s> RICK 0.0000
-3.4093 <s> RID 0.0000
-3.4093 <s> RIDE 0.0000
-3.4093 <s> RIDGE 0.0000
-3.4093 <s> RIGHT 0.0000
-3.4093 <s> RIM 0.0000
-3.4093 <s> RINK 0.0000
-3.4093 <s> RIP 0.0000
-3.4093 <s> RISE 0.0000
-3.4093 <s> RITE 0.0000
-3.4093 <s> ROACH 0.0000
-3.4093 <s> ROAD 0.0000
-3.4093 <s> ROAM 0.0000
-3.4093 <s> ROB 0.0000
-3.4093 <s> ROBE 0.0000
-3.4093 <s> ROCK 0.0000
-3.4093 <s> ROCKER 0.0000
-3.4093 <s> ROCKET 0.0000
-3.4093 <s> ROOK 0.0000
-3.4093 <s> ROOM 0.0000
-3.4093 <s> ROOT 0.0000
-3.4093 <s> ROPE 0.0000
-3.4093 <s> ROSE 0.0000
-3.4093 <s> ROT 0.0000
-3.4093 <s> ROTE 0.0000
-3.4093 <s> ROUT 0.0000
-3.4093 <s> ROUTE 0.0000
-3.4093 <s> ROVES 0.0000
-3.4093 <s> ROYAL 0.0000
-3.4093 <s> RUBBER 0.0000
-3.4093 <s> RUBBLE 0.0000
-3.4093 <s> RUCK 0.0000
-3.4093 <s> RUG 0.0000
-3.4093 <s> RUM 0.0000
-3.4093 <s> RUMP 0.0000
-3.4093 <s> RUN 0.0000
-3.4093 <s> RUNG 0.0000
-3.4093 <s> RUSH 0.0000
-3.4093 <s> RUSHED 0.0000
-3.4093 <s> RUST 0.0000
-3.4093 <s> S 0.0000
-3.4093 <s> SACK 0.0000
-3.4093 <s> SAG 0.0000
-3.4093 <s> SAID 0.0000
-3.4093 <s> SAIL 0.0000
-3.4093 <s> SAINT 0.0000
-3.4093 <s> SAKE 0.0000
-3.4093 <s> SAKES 0.0000
-3.4093 <s> SALE 0.0000
-3.4093 <s> SALLY 0.0000
-3.4093 <s> SAME 0.0000
-3.4093 <s> SAND 0.0000
-3.4093 <s> SANE 0.0000
-3.4093 <s> SANG 0.0000
-3.4093 <s> SANK 0.0000
-3.4093 <s> SAP 0.0000
-3.4093 <s> SAPPER 0.0000
-3.4093 <s> SARGE 0.0000
-3.4093 <s> SASH 0.0000
-3.4093 <s> SASS 0.0000
-3.4093 <s> SATE 0.0000
-3.4093 <s> SAVE 0.0000
-3.4093 <s> SAW 0.0000
-3.4093 <s> SAWN 0.0000
-3.4093 <s> SAX 0.0000
-3.4093 <s> SCAM 0.0000
-3.4093 <s> SCAN 0.0000
-3.4093 <s> SCENE 0.0000
-3.4093 <s> SCONE 0.0000
-3.4093 <s> SCORN 0.0000
-3.4093 <s> SCOT 0.0000
-3.4093 <s> SCOTCH 0.0000
-3.4093 <s> SCRAM 0.0000
-3.4093 <s> SCRUM 0.0000
-3.4093 <s> SCUM 0.0000
-3.4093 <s> SCYTHE 0.0000
-3.4093 <s> SEA 0.0000
-3.4093 <s> SEAL 0.0000
-3.4093 <s> SEAM 0.0000
-3.4093 <s> SEAS 0.0000
-3.4093 <s> SEAT 0.0000
-3.4093 <s> SEE 0.0000
-3.4093 <s> SEED 0.0000
-3.4093 <s> SEEK 0.0000
-3.4093 <s> SEEM 0.0000
-3.4093 <s> SEEN 0.0000
-3.4093 <s> SEEP 0.0000
-3.4093 <s> SEER 0.0000
-3.4093 <s> SEETHE 0.0000
-3.4093 <s> SEIZE 0.0000
-3.4093 <s> SELL 0.0000
-3.4093 <s> SENT 0.0000
-3.4093 <s> SERB 0.0000
-3.4093 <s> SERVE 0.0000
-3.4093 <s> SET 0.0000
-3.4093 <s> SEW 0.0000
-3.4093 <s> SEX 0.0000
-3.4093 <s> SHACK 0.0000
-3.4093 <s> SHACKS 0.0000
-3.4093 <s> SHADE 0.0000
-3.4093 <s> SHAG 0.0000
-3.4093 <s> SHAKE 0.0000
-3.4093 <s> SHALE 0.0000
-3.4093 <s> SHAME 0.0000
-3.4093 <s> SHANK 0.0000
-3.4093 <s> SHARK 0.0000
-3.4093 <s> SHARPER 0.0000
-3.4093 <s> SHAVE 0.0000
-3.4093 <s> SHE 0.0000
-3.4093 <s> SHE'D 0.0000
-3.4093 <s> SHE'LL 0.0000
-3.4093 <s> SHE'S 0.0000
-3.4093 <s> SHEATHE 0.0000
-3.4093 <s> SHED 0.0000
-3.4093 <s> SHEEN 0.0000
-3.4093 <s> SHEEP 0.0000
-3.4093 <s> SHEER 0.0000
-3.4093 <s> SHEET 0.0000
-3.4093 <s> SHELL 0.0000
-3.4093 <s> SHERPA 0.0000
-3.1082 <s> SHE__ 0.0000
-3.4093 <s> SHE__L 0.0000
-3.4093 <s> SHIFT 0.0000
-3.4093 <s> SHILL 0.0000
-3.4093 <s> SHIN 0.0000
-3.4093 <s> SHINE 0.0000
-3.4093 <s> SHINGLE 0.0000
-3.4093 <s> SHIP 0.0000
-3.4093 <s> SHIRK 0.0000
-3.4093 <s> SHIT 0.0000
-3.4093 <s> SHOCK 0.0000
-3.4093 <s> SHOD 0.0000
-3.4093 <s> SHOE 0.0000
-3.4093 <s> SHOP 0.0000
-3.4093 <s> SHORE 0.0000
-3.4093 <s> SHORN 0.0000
-3.4093 <s> SHORT 0.0000
-3.4093 <s> SHOT 0.0000
-3.4093 <s> SHOW 0.0000
-3.4093 <s> SHOWN 0.0000
-3.4093 <s> SHUCKS 0.0000
-3.4093 <s> SHUN 0.0000
-3.4093 <s> SHY 0.0000
-3.4093 <s> SICK 0.0000
-3.4093 <s> SIEGE 0.0000
-3.4093 <s> SIFT 0.0000
-3.4093 <s> SIGH 0.0000
-3.4093 <s> SIGHS 0.0000
-3.4093 <s> SIGN 0.0000
-3.4093 <s> SILL 0.0000
-3.4093 <s> SIM 0.0000
-3.4093 <s> SIN 0.0000
-3.4093 <s> SINE 0.0000
-3.4093 <s> SING 0.0000
-3.4093 <s> SINGLE 0.0000
-3.4093 <s> SINK 0.0000
-3.4093 <s> SIP 0.0000
-3.4093 <s> SIT 0.0000
-3.4093 <s> SIZE 0.0000
-3.4093 <s> SKIM 0.0000
-3.4093 <s> SKIN 0.0000
-3.4093 <s> SLAG 0.0000
-3.4093 <s> SLAM 0.0000
-3.4093 <s> SLANG 0.0000
-3.4093 <s> SLASH 0.0000
-3.4093 <s> SLAT 0.0000
-3.4093 <s> SLED 0.0000
-3.4093 <s> SLEDGE 0.0000
-3.4093 <s> SLUG 0.0000
-3.4093 <s> SLUM 0.0000
-3.4093 <s> SLUNG 0.0000
-3.4093 <s> SLUSH 0.0000
-3.4093 <s> SLUT 0.0000
-3.4093 <s> SNORE 0.0000
-3.4093 <s> SNOW 0.0000
-3.4093 <s> SO 0.0000
-3.4093 <s> SOCK 0.0000
-3.4093 <s> SOD 0.0000
-3.4093 <s> SOFA 0.0000
-3.4093 <s> SOME 0.0000
-3.4093 <s> SON 0.0000
-3.4093 <s> SONG 0.0000
-3.4093 <s> SOOTHE 0.0000
-3.4093 <s> SOP 0.0000
-3.4093 <s> SORE 0.0000
-3.4093 <s> SORT 0.0000
-3.4093 <s> SOT 0.0000
-3.4093 <s> SOUGHT 0.0000
-3.4093 <s> SPADE 0.0000
-3.4093 <s> SPAM 0.0000
-3.4093 <s> SPAN 0.0000
-3.4093 <s> SPATIAL 0.0000
-3.4093 <s> SPECIAL 0.0000
-3.4093 <s> SPED 0.0000
-3.4093 <s> SPERM 0.0000
-3.4093 <s> SPLAT 0.0000
-3.4093 <s> SPLINT 0.0000
-3.4093 <s> SPRAT 0.0000
-3.4093 <s> SPRINT 0.0000
-3.4093 <s> SPURN 0.0000
-3.4093 <s> STAB 0.0000
-3.4093 <s> STACK 0.0000
-3.4093 <s> STAND 0.0000
-3.4093 <s> STANK 0.0000
-3.4093 <s> STAR 0.0000
-3.4093 <s> STARCH 0.0000
-3.4093 <s> START 0.0000
-3.4093 <s> STAYED 0.0000
-3.4093 <s> STEAD 0.0000
-3.4093 <s> STIR 0.0000
-3.4093 <s> STOKE 0.0000
-3.4093 <s> STORE 0.0000
-3.4093 <s> STORK 0.0000
-3.4093 <s> STOW 0.0000
-3.4093 <s> STUB 0.0000
-3.4093 <s> STUCK 0.0000
-3.4093 <s> STUN 0.0000
-3.4093 <s> STUNG 0.0000
-3.4093 <s> STUNK 0.0000
-3.4093 <s> STUNNED 0.0000
-3.4093 <s> SUCK 0.0000
-3.4093 <s> SUCKS 0.0000
-3.4093 <s> SUDS 0.0000
-3.4093 <s> SUE 0.0000
-3.4093 <s> SUES 0.0000
-3.4093 <s> SULLY 0.0000
-3.4093 <s> SUM 0.0000
-3.4093 <s> SUMP 0.0000
-3.4093 <s> SUN 0.0000
-3.4093 <s> SUNG 0.0000
-3.4093 <s> SUNK 0.0000
-3.4093 <s> SUNNED 0.0000
-3.4093 <s> SUP 0.0000
-3.4093 <s> SUPPER 0.0000
-3.4093 <s> SURE 0.0000
-3.4093 <s> SURGE 0.0000
-3.4093 <s> SWAM 0.0000
-3.4093 <s> SWUM 0.0000
-3.4093 <s> SYMBOL 0.0000
-3.4093 <s> TAB 0.0000
-3.4093 <s> TACK 0.0000
-3.4093 <s> TAG 0.0000
-3.4093 <s> TAINT 0.0000
-3.4093 <s> TAKE 0.0000
-3.4093 <s> TALE 0.0000
-3.4093 <s> TAN 0.0000
-3.4093 <s> TANG 0.0000
-3.4093 <s> TAP 0.0000
-3.4093 <s> TAR 0.0000
-3.4093 <s> TARPS 0.0000
-3.4093 <s> TART 0.0000
-3.4093 <s> TASTE 0.0000
-3.4093 <s> TAT 0.0000
-3.4093 <s> TAUGHT 0.0000
-3.4093 <s> TEACH 0.0000
-3.4093 <s> TEAK 0.0000
-3.4093 <s> TEAM 0.0000
-3.4093 <s> TEAR 0.0000
-3.4093 <s> TEAS 0.0000
-3.4093 <s> TEASE 0.0000
-3.4093 <s> TEASING 0.0000
-3.4093 <s> TEAT 0.0000
-3.4093 <s> TECH 0.0000
-3.4093 <s> TEEM 0.0000
-3.4093 <s> TEEN 0.0000
-3.4093 <s> TEETHE 0.0000
-3.4093 <s> TEETHING 0.0000
-3.4093 <s> TELL 0.0000
-3.4093 <s> TENSE 0.0000
-3.4093 <s> TENT 0.0000
-3.4093 <s> TENTH 0.0000
-3.4093 <s> TERM 0.0000
-3.4093 <s> TERN 0.0000
-3.4093 <s> TEST 0.0000
-3.4093 <s> THANK 0.0000
-3.4093 <s> THAW 0.0000
-3.4093 <s> THEME 0.0000
-3.4093 <s> THEN 0.0000
-3.4093 <s> THICK 0.0000
-3.4093 <s> THIGH 0.0000
-3.4093 <s> THIMBLE 0.0000
-3.4093 <s> THIN 0.0000
-3.4093 <s> THING 0.0000
-3.4093 <s> THINK 0.0000
-3.4093 <s> THONG 0.0000
-3.4093 <s> THORN 0.0000
-3.4093 <s> THOUGHT 0.0000
-3.4093 <s> THRASH 0.0000
-3.4093 <s> THRUSH 0.0000
-3.4093 <s> THUDS 0.0000
-3.4093 <s> THUMB 0.0000
-3.4093 <s> THUMP 0.0000
-3.4093 <s> THYME 0.0000
-3.4093 <s> TICK 0.0000
-3.4093 <s> TIDE 0.0000
-3.4093 <s> TIES 0.0000
-3.4093 <s> TILED 0.0000
-3.4093 <s> TILL 0.0000
-3.4093 <s> TIME 0.0000
-3.4093 <s> TIN 0.0000
-3.4093 <s> TINE 0.0000
-3.4093 <s> TING 0.0000
-3.4093 <s> TIP 0.0000
-3.4093 <s> TIT 0.0000
-3.4093 <s> TITHE 0.0000
-3.4093 <s> TOE 0.0000
-3.4093 <s> TOES 0.0000
-3.4093 <s> TOKE 0.0000
-3.4093 <s> TOMB 0.0000
-3.4093 <s> TOME 0.0000
-3.4093 <s> TON 0.0000
-3.4093 <s> TONE 0.0000
-3.4093 <s> TONGUE 0.0000
-3.4093 <s> TOO 0.0000
-3.4093 <s> TOON 0.0000
-3.4093 <s> TOP 0.0000
-3.4093 <s> TORCH 0.0000
-3.4093 <s> TORE 0.0000
-3.4093 <s> TORN 0.0000
-3.4093 <s> TORT 0.0000
-3.4093 <s> TOTE 0.0000
-3.4093 <s> TOUCH 0.0000
-3.4093 <s> TOUR 0.0000
-3.4093 <s> TRACK 0.0000
-3.4093 <s> TRADE 0.0000
-3.4093 <s> TRAINED 0.0000
-3.4093 <s> TRAMPS 0.0000
-3.4093 <s> TRAMS 0.0000
-3.4093 <s> TRANS- 0.0000
-3.4093 <s> TREAD 0.0000
-3.4093 <s> TREND 0.0000
-3.4093 <s> TRUCE 0.0000
-3.4093 <s> TRUCK 0.0000
-3.4093 <s> TRUMPS 0.0000
-3.4093 <s> TRUTH 0.0000
-3.4093 <s> TS 0.0000
-3.4093 <s> TUB 0.0000
-3.4093 <s> TUBBY 0.0000
-3.4093 <s> TUCK 0.0000
-3.4093 <s> TUFT 0.0000
-3.4093 <s> TUG 0.0000
-3.4093 <s> TURN 0.0000
-3.4093 <s> TURPS 0.0000
-3.4093 <s> TUT 0.0000
-3.4093 <s> TWIT 0.0000
-3.4093 <s> TWITCH 0.0000
-3.4093 <s> TWO 0.0000
-3.4093 <s> TWOS 0.0000
-3.4093 <s> UNCLE 0.0000
-3.4093 <s> USE 0.0000
-3.4093 <s> VAN 0.0000
-3.4093 <s> VAT 0.0000
-3.4093 <s> VEER 0.0000
-3.4093 <s> VEIL 0.0000
-3.4093 <s> VEIN 0.0000
-3.4093 <s> VEINED 0.0000
-3.4093 <s> VEND 0.0000
-3.4093 <s> VENT 0.0000
-3.4093 <s> VERB 0.0000
-3.4093 <s> VERVE 0.0000
-3.4093 <s> VERY 0.0000
-3.4093 <s> VID 0.0000
-3.4093 <s> VILE 0.0000
-3.4093 <s> VIZ 0.0000
-3.4093 <s> VOLE 0.0000
-3.4093 <s> VOLT 0.0000
-3.4093 <s> VOTE 0.0000
-3.4093 <s> VOW 0.0000
-3.4093 <s> VOWELS 0.0000
-3.4093 <s> VROOM 0.0000
-3.4093 <s> WADE 0.0000
-3.4093 <s> WAGE 0.0000
-3.4093 <s> WAIST 0.0000
-3.4093 <s> WAIT 0.0000
-3.4093 <s> WAN 0.0000
-3.4093 <s> WANE 0.0000
-3.4093 <s> WANED 0.0000
-3.4093 <s> WATCH 0.0000
-3.4093 <s> WED 0.0000
-3.4093 <s> WEDGE 0.0000
-3.4093 <s> WEIGHED 0.0000
-3.4093 <s> WELL 0.0000
-3.4093 <s> WEND 0.0000
-3.4093 <s> WEST 0.0000
-3.4093 <s> WET 0.0000
-3.4093 <s> WHALE 0.0000
-3.4093 <s> WHAT 0.0000
-3.4093 <s> WHEN 0.0000
-3.4093 <s> WHICH 0.0000
-3.4093 <s> WHIZZ 0.0000
-3.4093 <s> WHOLE 0.0000
-3.4093 <s> WHORE 0.0000
-3.4093 <s> WHORES 0.0000
-3.4093 <s> WIN 0.0000
-3.4093 <s> WIND 0.0000
-3.4093 <s> WING 0.0000
-3.4093 <s> WINGED 0.0000
-3.4093 <s> WIT 0.0000
-3.4093 <s> WITCH 0.0000
-3.4093 <s> WITH 0.0000
-3.4093 <s> WON 0.0000
-3.4093 <s> WORSE 0.0000
-3.4093 <s> WORTH 0.0000
-3.4093 <s> WRAITH 0.0000
-3.4093 <s> WRAP 0.0000
-3.4093 <s> WRECK 0.0000
-3.4093 <s> WREN 0.0000
-3.4093 <s> WRENCH 0.0000
-3.4093 <s> WRIST 0.0000
-3.4093 <s> WRIT 0.0000
-3.4093 <s> WRITER 0.0000
-3.4093 <s> WRONG 0.0000
-3.4093 <s> WROTE 0.0000
-3.4093 <s> X 0.0000
-3.4093 <s> YOUTH 0.0000
-3.4093 <s> ZEN 0.0000
-0.3010 ACE </s> -0.3010
-0.3010 ACHES </s> -0.3010
-0.3010 AGE </s> -0.3010
-0.3010 AIM </s> -0.3010
-0.3010 ALE </s> -0.3010
-0.3010 ALIVE </s> -0.3010
-0.3010 AM </s> -0.3010
-0.3010 AN </s> -0.3010
-0.3010 ANKLE </s> -0.3010
-0.3010 ARC </s> -0.3010
-0.3010 ARCH </s> -0.3010
-0.3010 ARRIVE </s> -0.3010
-0.3010 ART </s> -0.3010
-0.3010 ASH </s> -0.3010
-0.3010 ASS </s> -0.3010
-0.3010 AWED </s> -0.3010
-0.3010 BACK </s> -0.3010
-0.3010 BAD </s> -0.3010
-0.3010 BADE </s> -0.3010
-0.3010 BADGE </s> -0.3010
-0.3010 BAG </s> -0.3010
-0.3010 BAIL </s> -0.3010
-0.3010 BAIT </s> -0.3010
-0.3010 BAIZE </s> -0.3010
-0.3010 BAKE </s> -0.3010
-0.3010 BALE </s> -0.3010
-0.3010 BALL </s> -0.3010
-0.3010 BAN </s> -0.3010
-0.3010 BAND </s> -0.3010
-0.3010 BANE </s> -0.3010
-0.3010 BANG </s> -0.3010
-0.3010 BANGED </s> -0.3010
-0.3010 BANK </s> -0.3010
-0.3010 BANKER </s> -0.3010
-0.3010 BANNED </s> -0.3010
-0.3010 BAR </s> -0.3010
-0.3010 BARBS </s> -0.3010
-0.3010 BARD </s> -0.3010
-0.3010 BARGE </s> -0.3010
-0.3010 BARN </s> -0.3010
-0.3010 BARRED </s> -0.3010
-0.3010 BASED </s> -0.3010
-0.3010 BASH </s> -0.3010
-0.3010 BASS </s> -0.3010
-0.3010 BAT </s> -0.3010
-0.3010 BATCH </s> -0.3010
-0.3010 BATED </s> -0.3010
-0.3010 BATH </s> -0.3010
-0.3010 BATHE </s> -0.3010
-0.3010 BATTER </s> -0.3010
-0.3010 BAYS </s> -0.3010
-0.3010 BEACH </s> -0.3010
-0.3010 BEAM </s> -0.3010
-0.3010 BEAN </s> -0.3010
-0.3010 BEAT </s> -0.3010
-0.3010 BECK </s> -0.3010
-0.3010 BED </s> -0.3010
-0.3010 BEECH </s> -0.3010
-0.3010 BEEN </s> -0.3010
-0.3010 BEER </s> -0.3010
-0.3010 BEET </s> -0.3010
-0.3010 BEGAN </s> -0.3010
-0.3010 BEGUN </s> -0.3010
-0.3010 BELCH </s> -0.3010
-0.3010 BELL </s> -0.3010
-0.3010 BELLY </s> -0.3010
-0.3010 BELT </s> -0.3010
-0.3010 BENCH </s> -0.3010
-0.3010 BENT </s> -0.3010
-0.3010 BERRY </s> -0.3010
-0.3010 BERTH </s> -0.3010
-0.3010 BEST </s> -0.3010
-0.3010 BET </s> -0.3010
-0.3010 BETTED </s> -0.3010
-0.3010 BID </s> -0.3010
-0.3010 BILE </s> -0.3010
-0.3010 BIRD </s> -0.3010
-0.3010 BIRTH </s> -0.3010
-0.3010 BIT </s> -0.3010
-0.3010 BITCH </s> -0.3010
-0.3010 BITCHY </s> -0.3010
-0.3010 BITTY </s> -0.3010
-0.3010 BIZ </s> -0.3010
-0.3010 BLABBER </s> -0.3010
-0.3010 BLACKEN </s> -0.3010
-0.3010 BLADE </s> -0.3010
-0.3010 BLAH </s> -0.3010
-0.3010 BLAIN </s> -0.3010
-0.3010 BLAME </s> -0.3010
-0.3010 BLEACH </s> -0.3010
-0.3010 BLEAT </s> -0.3010
-0.3010 BLED </s> -0.3010
-0.3010 BLEW </s> -0.3010
-0.3010 BLIGHT </s> -0.3010
-0.3010 BLOT </s> -0.3010
-0.3010 BLOTCH </s> -0.3010
-0.3010 BLUBBER </s> -0.3010
-0.3010 BLUE </s> -0.3010
-0.3010 BLUES </s> -0.3010
-0.3010 BLUR </s> -0.3010
-0.3010 BLUSH </s> -0.3010
-0.3010 BOAT </s> -0.3010
-0.3010 BODE </s> -0.3010
-0.3010 BOLT </s> -0.3010
-0.3010 BONGS </s> -0.3010
-0.3010 BONZE </s> -0.3010
-0.3010 BOOM </s> -0.3010
-0.3010 BOON </s> -0.3010
-0.3010 BORE </s> -0.3010
-0.3010 BORED </s> -0.3010
-0.3010 BOSH </s> -0.3010
-0.3010 BOSS </s> -0.3010
-0.3010 BOT </s> -0.3010
-0.3010 BOTCH </s> -0.3010
-0.3010 BOUGHT </s> -0.3010
-0.3010 BOW </s> -0.3010
-0.3010 BOWELS </s> -0.3010
-0.3010 BOWL </s> -0.3010
-0.3010 BRACED </s> -0.3010
-0.3010 BRACKEN </s> -0.3010
-0.3010 BRAID </s> -0.3010
-0.3010 BRASH </s> -0.3010
-0.3010 BREAD </s> -0.3010
-0.3010 BREAST </s> -0.3010
-0.3010 BREATHE </s> -0.3010
-0.3010 BREEZE </s> -0.3010
-0.3010 BREW </s> -0.3010
-0.3010 BRIGHT </s> -0.3010
-0.3010 BROOM </s> -0.3010
-0.3010 BRUISE </s> -0.3010
-0.3010 BRUSH </s> -0.3010
-0.3010 BUCK </s> -0.3010
-0.3010 BUD </s> -0.3010
-0.3010 BUDGE </s> -0.3010
-0.3010 BUG </s> -0.3010
-0.3010 BUN </s> -0.3010
-0.3010 BUNG </s> -0.3010
-0.3010 BUNK </s> -0.3010
-0.3010 BUNKER </s> -0.3010
-0.3010 BURBS </s> -0.3010
-0.3010 BURN </s> -0.3010
-0.3010 BURR </s> -0.3010
-0.3010 BURY </s> -0.3010
-0.3010 BUT </s> -0.3010
-0.3010 BUTTER </s> -0.3010
-0.3010 C </s> -0.3010
-0.3010 CAB </s> -0.3010
-0.3010 CAD </s> -0.3010
-0.3010 CADGE </s> -0.3010
-0.3010 CAM </s> -0.3010
-0.3010 CAME </s> -0.3010
-0.3010 CAN </s> -0.3010
-0.3010 CANE </s> -0.3010
-0.3010 CAP </s> -0.3010
-0.3010 CAR </s> -0.3010
-0.3010 CARBS </s> -0.3010
-0.3010 CARD </s> -0.3010
-0.3010 CART </s> -0.3010
-0.3010 CARVE </s> -0.3010
-0.3010 CAT </s> -0.3010
-0.3010 CATCH </s> -0.3010
-0.3010 CATCHY </s> -0.3010
-0.3010 CATTY </s> -0.3010
-0.3010 CHAIR </s> -0.3010
-0.3010 CHALK </s> -0.3010
-0.3010 CHAMP </s> -0.3010
-0.3010 CHAP </s> -0.3010
-0.3010 CHAR </s> -0.3010
-0.3010 CHARGE </s> -0.3010
-0.3010 CHARRED </s> -0.3010
-0.3010 CHART </s> -0.3010
-0.3010 CHASE </s> -0.3010
-0.3010 CHAT </s> -0.3010
-0.3010 CHAUFFEUR </s> -0.3010
-0.3010 CHEAT </s> -0.3010
-0.3010 CHEEK </s> -0.3010
-0.3010 CHEER </s> -0.3010
-0.3010 CHEESE </s> -0.3010
-0.3010 CHESS </s> -0.3010
-0.3010 CHEST </s> -0.3010
-0.3010 CHEW </s> -0.3010
-0.3010 CHIC </s> -0.3010
-0.3010 CHICK </s> -0.3010
-0.3010 CHIDE </s> -0.3010
-0.3010 CHILD </s> -0.3010
-0.3010 CHILL </s> -0.3010
-0.3010 CHIME </s> -0.3010
-0.3010 CHIN </s> -0.3010
-0.3010 CHING </s> -0.3010
-0.3010 CHIP </s> -0.3010
-0.3010 CHIRPS </s> -0.3010
-0.3010 CHIT </s> -0.3010
-0.3010 CHOKE </s> -0.3010
-0.3010 CHOOSE </s> -0.3010
-0.3010 CHOP </s> -0.3010
-0.3010 CHORE </s> -0.3010
-0.3010 CHORES </s> -0.3010
-0.3010 CHOSE </s> -0.3010
-0.3010 CHUBBY </s> -0.3010
-0.3010 CHUFFED </s> -0.3010
-0.3010 CHUG </s> -0.3010
-0.3010 CHUMP </s> -0.3010
-0.3010 CHURN </s> -0.3010
-0.3010 CLAM </s> -0.3010
-0.3010 CLAN </s> -0.3010
-0.3010 CLANG </s> -0.3010
-0.3010 CLASH </s> -0.3010
-0.3010 CLAWS </s> -0.3010
-0.3010 CLOSE </s> -0.3010
-0.3010 CLOSING </s> -0.3010
-0.3010 CLOTHE </s> -0.3010
-0.3010 CLOTHING </s> -0.3010
-0.3010 CLOWN </s> -0.3010
-0.3010 COACH </s> -0.3010
-0.3010 COAST </s> -0.3010
-0.3010 COAT </s> -0.3010
-0.3010 CODE </s> -0.3010
-0.3010 COKE </s> -0.3010
-0.3010 COLLECT </s> -0.3010
-0.3010 COMB </s> -0.3010
-0.3010 COME </s> -0.3010
-0.3010 CONE </s> -0.3010
-0.3010 COPES </s> -0.3010
-0.3010 CORD </s> -0.3010
-0.3010 CORK </s> -0.3010
-0.3010 CORN </s> -0.3010
-0.3010 CORPSE </s> -0.3010
-0.3010 CORRECT </s> -0.3010
-0.3010 COSHED </s> -0.3010
-0.3010 COST </s> -0.3010
-0.3010 COURSED </s> -0.3010
-0.3010 CRAM </s> -0.3010
-0.3010 CRASH </s> -0.3010
-0.3010 CRASS </s> -0.3010
-0.3010 CRAW </s> -0.3010
-0.3010 CROW </s> -0.3010
-0.3010 CROWN </s> -0.3010
-0.3010 CRUMB </s> -0.3010
-0.3010 CRUSH </s> -0.3010
-0.3010 CRUSHED </s> -0.3010
-0.3010 CRUST </s> -0.3010
-0.3010 CS </s> -0.3010
-0.3010 CUB </s> -0.3010
-0.3010 CUP </s> -0.3010
-0.3010 CUR </s> -0.3010
-0.3010 CURB </s> -0.3010
-0.3010 CURBS </s> -0.3010
-0.3010 CURD </s> -0.3010
-0.3010 CURT </s> -0.3010
-0.3010 CURVE </s> -0.3010
-0.3010 CUT </s> -0.3010
-0.3010 DAB </s> -0.3010
-0.3010 DABBLE </s> -0.3010
-0.3010 DAD </s> -0.3010
-0.3010 DALE </s> -0.3010
-0.3010 DAM </s> -0.3010
-0.3010 DAMN </s> -0.3010
-0.3010 DAMP </s> -0.3010
-0.3010 DANGLE </s> -0.3010
-0.3010 DANK </s> -0.3010
-0.3010 DART </s> -0.3010
-0.3010 DATE </s> -0.3010
-0.3010 DAWN </s> -0.3010
-0.3010 DAY </s> -0.3010
-0.3010 DEAN </s> -0.3010
-0.3010 DEANS </s> -0.3010
-0.3010 DEAR </s> -0.3010
-0.3010 DEBT </s> -0.3010
-0.3010 DEEM </s> -0.3010
-0.3010 DEEP </s> -0.3010
-0.3010 DEIGN </s> -0.3010
-0.3010 DELL </s> -0.3010
-0.3010 DEN </s> -0.3010
-0.3010 DIG </s> -0.3010
-0.3010 DIM </s> -0.3010
-0.3010 DIME </s> -0.3010
-0.3010 DIN </s> -0.3010
-0.3010 DINE </s> -0.3010
-0.3010 DING </s> -0.3010
-0.3010 DINK </s> -0.3010
-0.3010 DINKS </s> -0.3010
-0.3010 DIRT </s> -0.3010
-0.3010 DISSED </s> -0.3010
-0.3010 DIVE </s> -0.3010
-0.3010 DO </s> -0.3010
-0.3010 DOB </s> -0.3010
-0.3010 DOCK </s> -0.3010
-0.3010 DOE </s> -0.3010
-0.3010 DOG </s> -0.3010
-0.3010 DOME </s> -0.3010
-0.3010 DON </s> -0.3010
-0.3010 DONE </s> -0.3010
-0.3010 DONG </s> -0.3010
-0.3010 DOOR </s> -0.3010
-0.3010 DOORS </s> -0.3010
-0.3010 DORM </s> -0.3010
-0.3010 DOSH </s> -0.3010
-0.3010 DOSS </s> -0.3010
-0.3010 DOT </s> -0.3010
-0.3010 DOUBLE </s> -0.3010
-0.3010 DOUSED </s> -0.3010
-0.3010 DOVE </s> -0.3010
-0.3010 DOZE </s> -0.3010
-0.3010 DRAM </s> -0.3010
-0.3010 DRANK </s> -0.3010
-0.3010 DRAWN </s> -0.3010
-0.3010 DREAD </s> -0.3010
-0.3010 DREDGE </s> -0.3010
-0.3010 DRIBBLE </s> -0.3010
-0.3010 DRIVEL </s> -0.3010
-0.3010 DRONE </s> -0.3010
-0.3010 DRUM </s> -0.3010
-0.3010 DRUNK </s> -0.3010
-0.3010 DS </s> -0.3010
-0.3010 DUB </s> -0.3010
-0.3010 DUD </s> -0.3010
-0.3010 DUG </s> -0.3010
-0.3010 DUMB </s> -0.3010
-0.3010 DUMP </s> -0.3010
-0.3010 DUN </s> -0.3010
-0.3010 DUNG </s> -0.3010
-0.3010 DUNK </s> -0.3010
-0.3010 DUST </s> -0.3010
-0.3010 EACH </s> -0.3010
-0.3010 EAT </s> -0.3010
-0.3010 EDGE </s> -0.3010
-0.3010 ETCH </s> -0.3010
-0.3010 FACE </s> -0.3010
-0.3010 FACED </s> -0.3010
-0.3010 FAD </s> -0.3010
-0.3010 FADE </s> -0.3010
-0.3010 FAG </s> -0.3010
-0.3010 FAIL </s> -0.3010
-0.3010 FAIR </s> -0.3010
-0.3010 FAITH </s> -0.3010
-0.3010 FALL </s> -0.3010
-0.3010 FAME </s> -0.3010
-0.3010 FAN </s> -0.3010
-0.3010 FANG </s> -0.3010
-0.3010 FANNED </s> -0.3010
-0.3010 FAR </s> -0.3010
-0.3010 FARE </s> -0.3010
-0.3010 FARM </s> -0.3010
-0.3010 FART </s> -0.3010
-0.3010 FAST </s> -0.3010
-0.3010 FAT </s> -0.3010
-0.3010 FATE </s> -0.3010
-0.3010 FAWN </s> -0.3010
-0.3010 FEAR </s> -0.3010
-0.3010 FED </s> -0.3010
-0.3010 FEE </s> -0.3010
-0.3010 FEED </s> -0.3010
-0.3010 FEEL </s> -0.3010
-0.3010 FEES </s> -0.3010
-0.3010 FEET </s> -0.3010
-0.3010 FEIGN </s> -0.3010
-0.3010 FEIGNED </s> -0.3010
-0.3010 FELL </s> -0.3010
-0.3010 FEN </s> -0.3010
-0.3010 FENCE </s> -0.3010
-0.3010 FEND </s> -0.3010
-0.3010 FEW </s> -0.3010
-0.3010 FEY </s> -0.3010
-0.3010 FEZ </s> -0.3010
-0.3010 FIBRE </s> -0.3010
-0.3010 FIGHT </s> -0.3010
-0.3010 FILL </s> -0.3010
-0.3010 FIR </s> -0.3010
-0.3010 FIRM </s> -0.3010
-0.3010 FIRST </s> -0.3010
-0.3010 FISHED </s> -0.3010
-0.3010 FIST </s> -0.3010
-0.3010 FIT </s> -0.3010
-0.3010 FIVE </s> -0.3010
-0.3010 FIVER </s> -0.3010
-0.3010 FIZZ </s> -0.3010
-0.3010 FLAKE </s> -0.3010
-0.3010 FLAME </s> -0.3010
-0.3010 FLANK </s> -0.3010
-0.3010 FLASH </s> -0.3010
-0.3010 FLAX </s> -0.3010
-0.3010 FLAYED </s> -0.3010
-0.3010 FLEA </s> -0.3010
-0.3010 FLEAS </s> -0.3010
-0.3010 FLECK </s> -0.3010
-0.3010 FLED </s> -0.3010
-0.3010 FLEE </s> -0.3010
-0.3010 FLEES </s> -0.3010
-0.3010 FLINCH </s> -0.3010
-0.3010 FLINT </s> -0.3010
-0.3010 FLUNK </s> -0.3010
-0.3010 FLUSH </s> -0.3010
-0.3010 FLUX </s> -0.3010
-0.3010 FLY </s> -0.3010
-0.3010 FOAL </s> -0.3010
-0.3010 FOAM </s> -0.3010
-0.3010 FOB </s> -0.3010
-0.3010 FOE </s> -0.3010
-0.3010 FOES </s> -0.3010
-0.3010 FOG </s> -0.3010
-0.3010 FOLK </s> -0.3010
-0.3010 FOP </s> -0.3010
-0.3010 FORCE </s> -0.3010
-0.3010 FORD </s> -0.3010
-0.3010 FORE </s> -0.3010
-0.3010 FORGE </s> -0.3010
-0.3010 FORK </s> -0.3010
-0.3010 FORM </s> -0.3010
-0.3010 FOUND </s> -0.3010
-0.3010 FOUR </s> -0.3010
-0.3010 FOURTH </s> -0.3010
-0.3010 FOWL </s> -0.3010
-0.3010 FREE </s> -0.3010
-0.3010 FREEZE </s> -0.3010
-0.3010 FREIGHT </s> -0.3010
-0.3010 FRET </s> -0.3010
-0.3010 FRY </s> -0.3010
-0.3010 FUN </s> -0.3010
-0.3010 FUND </s> -0.3010
-0.3010 FUNKY </s> -0.3010
-0.3010 FUNNY </s> -0.3010
-0.3010 FUR </s> -0.3010
-0.3010 FURL </s> -0.3010
-0.3010 GAIN </s> -0.3010
-0.3010 GALL </s> -0.3010
-0.3010 GAME </s> -0.3010
-0.3010 GAS </s> -0.3010
-0.3010 GASH </s> -0.3010
-0.3010 GATE </s> -0.3010
-0.3010 GEEZ </s> -0.3010
-0.3010 GEL </s> -0.3010
-0.3010 GET </s> -0.3010
-0.3010 GIN </s> -0.3010
-0.3010 GIRD </s> -0.3010
-0.3010 GIST </s> -0.3010
-0.3010 GLAM </s> -0.3010
-0.3010 GLAMOUR </s> -0.3010
-0.3010 GLAND </s> -0.3010
-0.3010 GLASS </s> -0.3010
-0.3010 GLEAM </s> -0.3010
-0.3010 GLEAN </s> -0.3010
-0.3010 GLOW </s> -0.3010
-0.3010 GLUM </s> -0.3010
-0.3010 GNAT </s> -0.3010
-0.3010 GNAWED </s> -0.3010
-0.3010 GNOME </s> -0.3010
-0.3010 GO </s> -0.3010
-0.3010 GOAD </s> -0.3010
-0.3010 GOAL </s> -0.3010
-0.3010 GONE </s> -0.3010
-0.3010 GONG </s> -0.3010
-0.3010 GORE </s> -0.3010
-0.3010 GORED </s> -0.3010
-0.3010 GORGE </s> -0.3010
-0.3010 GRAB </s> -0.3010
-0.3010 GRAM </s> -0.3010
-0.3010 GRAMMAR </s> -0.3010
-0.3010 GRAN </s> -0.3010
-0.3010 GRAND </s> -0.3010
-0.3010 GRASS </s> -0.3010
-0.3010 GRIM </s> -0.3010
-0.3010 GRIN </s> -0.3010
-0.3010 GROSS </s> -0.3010
-0.3010 GROW </s> -0.3010
-0.3010 GROWTH </s> -0.3010
-0.3010 GRUB </s> -0.3010
-0.3010 GUARD </s> -0.3010
-0.3010 GUM </s> -0.3010
-0.3010 GUN </s> -0.3010
-0.3010 GUSH </s> -0.3010
-0.3010 GUSHED </s> -0.3010
-0.3010 GUST </s> -0.3010
-0.3010 GYM </s> -0.3010
-0.3010 H </s> -0.3010
-0.3010 HA </s> -0.3010
-0.3010 HAD </s> -0.3010
-0.3010 HAG </s> -0.3010
-0.3010 HAIL </s> -0.3010
-0.3010 HAIR </s> -0.3010
-0.3010 HAKE </s> -0.3010
-0.3010 HAKES </s> -0.3010
-0.3010 HALL </s> -0.3010
-0.3010 HAM </s> -0.3010
-0.3010 HAND </s> -0.3010
-0.3010 HANG </s> -0.3010
-0.3010 HANGED </s> -0.3010
-0.3010 HANKER </s> -0.3010
-0.3010 HARD </s> -0.3010
-0.3010 HARE </s> -0.3010
-0.3010 HARM </s> -0.3010
-0.3010 HARPIES </s> -0.3010
-0.3010 HASH </s> -0.3010
-0.3010 HASTE </s> -0.3010
-0.3010 HAT </s> -0.3010
-0.3010 HATCH </s> -0.3010
-0.3010 HATE </s> -0.3010
-0.3010 HAW </s> -0.3010
-0.3010 HAY </s> -0.3010
-0.3010 HAZE </s> -0.3010
-0.3010 HE </s> -0.3010
-0.3010 HE'LL </s> -0.3010
-0.3010 HE'S </s> -0.3010
-0.3010 HEAD </s> -0.3010
-0.3010 HEAR </s> -0.3010
-0.3010 HEARD </s> -0.3010
-0.3010 HEART </s> -0.3010
-0.3010 HEAT </s> -0.3010
-0.3010 HECK </s> -0.3010
-0.3010 HEDGE </s> -0.3010
-0.3010 HEEL </s> -0.3010
-0.3010 HEIGHT </s> -0.3010
-0.3010 HELL </s> -0.3010
-0.3010 HENCE </s> -0.3010
-0.3010 HER </s> -0.3010
-0.3010 HERD </s> -0.3010
-0.3010 HERPES </s> -0.3010
-0.3010 HEW </s> -0.3010
-0.3010 HEX </s> -0.3010
-0.3010 HE__ </s> -0.3010
-0.3010 HILL </s> -0.3010
-0.3010 HIS </s> -0.3010
-0.3010 HIT </s> -0.3010
-0.3010 HITCH </s> -0.3010
-0.3010 HIVE </s> -0.3010
-0.3010 HOB </s> -0.3010
-0.3010 HOE </s> -0.3010
-0.3010 HOG </s> -0.3010
-0.3010 HOME </s> -0.3010
-0.3010 HONE </s> -0.3010
-0.3010 HONEY </s> -0.3010
-0.3010 HOOCH </s> -0.3010
-0.3010 HOOT </s> -0.3010
-0.3010 HOP </s> -0.3010
-0.3010 HORN </s> -0.3010
-0.3010 HORSE </s> -0.3010
-0.3010 HOSE </s> -0.3010
-0.3010 HOUND </s> -0.3010
-0.3010 HOWL </s> -0.3010
-0.3010 HUG </s> -0.3010
-0.3010 HUM </s> -0.3010
-0.3010 HUN </s> -0.3010
-0.3010 HUNCH </s> -0.3010
-0.3010 HUNG </s> -0.3010
-0.3010 HUNKER </s> -0.3010
-0.3010 HUNKY </s> -0.3010
-0.3010 HUNT </s> -0.3010
-0.3010 HURL </s> -0.3010
-0.3010 HURT </s> -0.3010
-0.3010 HUSH </s> -0.3010
-0.3010 HUT </s> -0.3010
-0.3010 HUTCH </s> -0.3010
-0.3010 IMPLODE </s> -0.3010
-0.3010 IMPLORED </s> -0.3010
-0.3010 IRK </s> -0.3010
-0.3010 IT </s> -0.3010
-0.3010 ITCH </s> -0.3010
-0.3010 J </s> -0.3010
-0.3010 JAB </s> -0.3010
-0.3010 JAG </s> -0.3010
-0.3010 JAIL </s> -0.3010
-0.3010 JAM </s> -0.3010
-0.3010 JANGLE </s> -0.3010
-0.3010 JAW </s> -0.3010
-0.3010 JAY </s> -0.3010
-0.3010 JEANS </s> -0.3010
-0.3010 JEEP </s> -0.3010
-0.3010 JEER </s> -0.3010
-0.3010 JELLY </s> -0.3010
-0.3010 JERRY </s> -0.3010
-0.3010 JET </s> -0.3010
-0.3010 JEW </s> -0.3010
-0.3010 JIBE </s> -0.3010
-0.3010 JIG </s> -0.3010
-0.3010 JINK </s> -0.3010
-0.3010 JINX </s> -0.3010
-0.3010 JIVE </s> -0.3010
-0.3010 JOB </s> -0.3010
-0.3010 JOCK </s> -0.3010
-0.3010 JOE </s> -0.3010
-0.3010 JOG </s> -0.3010
-0.3010 JOSH </s> -0.3010
-0.3010 JOSS </s> -0.3010
-0.3010 JOT </s> -0.3010
-0.3010 JOUST </s> -0.3010
-0.3010 JUG </s> -0.3010
-0.3010 JUMP </s> -0.3010
-0.3010 JUNK </s> -0.3010
-0.3010 JUST </s> -0.3010
-0.3010 KEN </s> -0.3010
-0.3010 KICK </s> -0.3010
-0.3010 KIN </s> -0.3010
-0.3010 KING </s> -0.3010
-0.3010 KISS </s> -0.3010
-0.3010 KIT </s> -0.3010
-0.3010 KITH </s> -0.3010
-0.3010 KITSCH </s> -0.3010
-0.3010 KNOW </s> -0.3010
-0.3010 KNOWN </s> -0.3010
-0.3010 KURD </s> -0.3010
-0.3010 L </s> -0.3010
-0.3010 LACE </s> -0.3010
-0.3010 LACED </s> -0.3010
-0.3010 LACK </s> -0.3010
-0.3010 LAG </s> -0.3010
-0.3010 LAGGING </s> -0.3010
-0.3010 LAID </s> -0.3010
-0.3010 LAIR </s> -0.3010
-0.3010 LAKE </s> -0.3010
-0.3010 LAMB </s> -0.3010
-0.3010 LAMP </s> -0.3010
-0.3010 LANE </s> -0.3010
-0.3010 LANES </s> -0.3010
-0.3010 LANK </s> -0.3010
-0.3010 LAP </s> -0.3010
-0.3010 LASH </s> -0.3010
-0.3010 LATE </s> -0.3010
-0.3010 LATHE </s> -0.3010
-0.3010 LATHER </s> -0.3010
-0.3010 LAW </s> -0.3010
-0.3010 LAY </s> -0.3010
-0.3010 LAZE </s> -0.3010
-0.3010 LEAD </s> -0.3010
-0.3010 LEADER </s> -0.3010
-0.3010 LEAP </s> -0.3010
-0.3010 LED </s> -0.3010
-0.3010 LEDGE </s> -0.3010
-0.3010 LEECH </s> -0.3010
-0.3010 LEEK </s> -0.3010
-0.3010 LEER </s> -0.3010
-0.3010 LENS </s> -0.3010
-0.3010 LENTIL </s> -0.3010
-0.3010 LESS </s> -0.3010
-0.3010 LEST </s> -0.3010
-0.3010 LET </s> -0.3010
-0.3010 LIB </s> -0.3010
-0.3010 LICE </s> -0.3010
-0.3010 LICK </s> -0.3010
-0.3010 LID </s> -0.3010
-0.3010 LIED </s> -0.3010
-0.3010 LIES </s> -0.3010
-0.3010 LIGHT </s> -0.3010
-0.3010 LIGHTER </s> -0.3010
-0.3010 LIMB </s> -0.3010
-0.3010 LIME </s> -0.3010
-0.3010 LINK </s> -0.3010
-0.3010 LINT </s> -0.3010
-0.3010 LIP </s> -0.3010
-0.3010 LIST </s> -0.3010
-0.3010 LIT </s> -0.3010
-0.3010 LITHE </s> -0.3010
-0.3010 LOAD </s> -0.3010
-0.3010 LOAM </s> -0.3010
-0.3010 LOATHE </s> -0.3010
-0.3010 LOAVES </s> -0.3010
-0.3010 LOB </s> -0.3010
-0.3010 LOBE </s> -0.3010
-0.3010 LOBES </s> -0.3010
-0.3010 LOCK </s> -0.3010
-0.3010 LOCKER </s> -0.3010
-0.3010 LOCKET </s> -0.3010
-0.3010 LONG </s> -0.3010
-0.3010 LOOK </s> -0.3010
-0.3010 LOOM </s> -0.3010
-0.3010 LOOT </s> -0.3010
-0.3010 LOPE </s> -0.3010
-0.3010 LORD </s> -0.3010
-0.3010 LOT </s> -0.3010
-0.3010 LOUT </s> -0.3010
-0.3010 LOW </s> -0.3010
-0.3010 LOWS </s> -0.3010
-0.3010 LOYAL </s> -0.3010
-0.3010 LUBBER </s> -0.3010
-0.3010 LUCK </s> -0.3010
-0.3010 LUG </s> -0.3010
-0.3010 LUMP </s> -0.3010
-0.3010 LUNG </s> -0.3010
-0.3010 LUSH </s> -0.3010
-0.3010 LUST </s> -0.3010
-0.3010 LUTE </s> -0.3010
-0.3010 LYNCH </s> -0.3010
-0.3010 M </s> -0.3010
-0.3010 MACE </s> -0.3010
-0.3010 MAD </s> -0.3010
-0.3010 MAIN </s> -0.3010
-0.3010 MAM </s> -0.3010
-0.3010 MAN </s> -0.3010
-0.3010 MARCH </s> -0.3010
-0.3010 MART </s> -0.3010
-0.3010 MASH </s> -0.3010
-0.3010 MASS </s> -0.3010
-0.3010 MASSED </s> -0.3010
-0.3010 MAT </s> -0.3010
-0.3010 MATCH </s> -0.3010
-0.3010 MATE </s> -0.3010
-0.3010 MATH </s> -0.3010
-0.3010 MAUL </s> -0.3010
-0.3010 MEAN </s> -0.3010
-0.3010 MEME </s> -0.3010
-0.3010 MEN </s> -0.3010
-0.3010 MESH </s> -0.3010
-0.3010 MESS </s> -0.3010
-0.3010 MET </s> -0.3010
-0.3010 MID </s> -0.3010
-0.3010 MIDGE </s> -0.3010
-0.3010 MISS </s> -0.3010
-0.3010 MOAN </s> -0.3010
-0.3010 MOANING </s> -0.3010
-0.3010 MOLE </s> -0.3010
-0.3010 MOOCH </s> -0.3010
-0.3010 MOOT </s> -0.3010
-0.3010 MORE </s> -0.3010
-0.3010 MORNING </s> -0.3010
-0.3010 MORTAR </s> -0.3010
-0.3010 MOSH </s> -0.3010
-0.3010 MOSS </s> -0.3010
-0.3010 MOTH </s> -0.3010
-0.3010 MOTOR </s> -0.3010
-0.3010 MOURN </s> -0.3010
-0.3010 MOUSE </s> -0.3010
-0.3010 MOUTH </s> -0.3010
-0.3010 MOW </s> -0.3010
-0.3010 MUCH </s> -0.3010
-0.3010 MUD </s> -0.3010
-0.3010 MUST </s> -0.3010
-0.3010 MUTT </s> -0.3010
-0.3010 MYTH </s> -0.3010
-0.3010 NODE </s> -0.3010
-0.3010 NOR </s> -0.3010
-0.3010 NORSE </s> -0.3010
-0.3010 NORTH </s> -0.3010
-0.3010 NOT </s> -0.3010
-0.3010 NOTCH </s> -0.3010
-0.3010 NOTE </s> -0.3010
-0.3010 NOUGHT </s> -0.3010
-0.3010 NUT </s> -0.3010
-0.3010 O </s> -0.3010
-0.3010 OAT </s> -0.3010
-0.3010 ODE </s> -0.3010
-0.3010 OR </s> -0.3010
-0.3010 OUCH </s> -0.3010
-0.3010 OUGHT </s> -0.3010
-0.3010 OUT </s> -0.3010
-0.3010 OWE </s> -0.3010
-0.3010 OWED </s> -0.3010
-0.3010 PA </s> -0.3010
-0.3010 PACK </s> -0.3010
-0.3010 PADDLE </s> -0.3010
-0.3010 PAGE </s> -0.3010
-0.3010 PAID </s> -0.3010
-0.3010 PAIN </s> -0.3010
-0.3010 PAINT </s> -0.3010
-0.3010 PAN </s> -0.3010
-0.3010 PANG </s> -0.3010
-0.3010 PAP </s> -0.3010
-0.3010 PAR </s> -0.3010
-0.3010 PARCH </s> -0.3010
-0.3010 PARCHED </s> -0.3010
-0.3010 PARK </s> -0.3010
-0.3010 PARP </s> -0.3010
-0.3010 PART </s> -0.3010
-0.3010 PASS </s> -0.3010
-0.3010 PASTE </s> -0.3010
-0.3010 PAT </s> -0.3010
-0.3010 PATCH </s> -0.3010
-0.3010 PATH </s> -0.3010
-0.3010 PATTER </s> -0.3010
-0.3010 PEACH </s> -0.3010
-0.3010 PEAT </s> -0.3010
-0.3010 PEN </s> -0.3010
-0.3010 PENT </s> -0.3010
-0.3010 PER </s> -0.3010
-0.3010 PERCH </s> -0.3010
-0.3010 PERCHED </s> -0.3010
-0.3010 PERK </s> -0.3010
-0.3010 PERP </s> -0.3010
-0.3010 PERT </s> -0.3010
-0.3010 PERTH </s> -0.3010
-0.3010 PEST </s> -0.3010
-0.3010 PHASE </s> -0.3010
-0.3010 PHLEGM </s> -0.3010
-0.3010 PHONE </s> -0.3010
-0.3010 PILOT </s> -0.3010
-0.3010 PIN </s> -0.3010
-0.3010 PING </s> -0.3010
-0.3010 PIRATE </s> -0.3010
-0.3010 PISS </s> -0.3010
-0.3010 PIT </s> -0.3010
-0.3010 PITCH </s> -0.3010
-0.3010 PITH </s> -0.3010
-0.3010 PLAY </s> -0.3010
-0.3010 PLAYED </s> -0.3010
-0.3010 PLED </s> -0.3010
-0.3010 PLEDGE </s> -0.3010
-0.3010 PLUS </s> -0.3010
-0.3010 PLUSH </s> -0.3010
-0.3010 POACH </s> -0.3010
-0.3010 POKE </s> -0.3010
-0.3010 POND </s> -0.3010
-0.3010 PONGED </s> -0.3010
-0.3010 PORCH </s> -0.3010
-0.3010 PORK </s> -0.3010
-0.3010 PORT </s> -0.3010
-0.3010 POUCH </s> -0.3010
-0.3010 POUT </s> -0.3010
-0.3010 PRAY </s> -0.3010
-0.3010 PUCK </s> -0.3010
-0.3010 PUDDLE </s> -0.3010
-0.3010 PUN </s> -0.3010
-0.3010 PUNCH </s> -0.3010
-0.3010 PUNT </s> -0.3010
-0.3010 PUP </s> -0.3010
-0.3010 PURGE </s> -0.3010
-0.3010 PURR </s> -0.3010
-0.3010 PURRED </s> -0.3010
-0.3010 PURSE </s> -0.3010
-0.3010 PUSH </s> -0.3010
-0.3010 PUSS </s> -0.3010
-0.3010 PUTT </s> -0.3010
-0.3010 PUTTER </s> -0.3010
-0.3010 QUARK </s> -0.3010
-0.3010 QUART </s> -0.3010
-0.3010 QUICK </s> -0.3010
-0.3010 QUIRK </s> -0.3010
-0.3010 QUOTE </s> -0.3010
-0.3010 RABBLE </s> -0.3010
-0.3010 RACE </s> -0.3010
-0.3010 RACED </s> -0.3010
-0.3010 RACK </s> -0.3010
-0.3010 RAG </s> -0.3010
-0.3010 RAGE </s> -0.3010
-0.3010 RAGGING </s> -0.3010
-0.3010 RAID </s> -0.3010
-0.3010 RAIN </s> -0.3010
-0.3010 RAINED </s> -0.3010
-0.3010 RAISE </s> -0.3010
-0.3010 RAKE </s> -0.3010
-0.3010 RAM </s> -0.3010
-0.3010 RAMP </s> -0.3010
-0.3010 RAN </s> -0.3010
-0.3010 RANG </s> -0.3010
-0.3010 RANK </s> -0.3010
-0.3010 RARE </s> -0.3010
-0.3010 RASH </s> -0.3010
-0.3010 RATE </s> -0.3010
-0.3010 RATHER </s> -0.3010
-0.3010 RAW </s> -0.3010
-0.3010 RAY </s> -0.3010
-0.3010 RAZE </s> -0.3010
-0.3010 REACH </s> -0.3010
-0.3010 READ </s> -0.3010
-0.3010 READER </s> -0.3010
-0.3010 REAP </s> -0.3010
-0.3010 REAR </s> -0.3010
-0.3010 REBEL </s> -0.3010
-0.3010 RED </s> -0.3010
-0.3010 REED </s> -0.3010
-0.3010 REEK </s> -0.3010
-0.3010 REND </s> -0.3010
-0.3010 RENT </s> -0.3010
-0.3010 RENTAL </s> -0.3010
-0.3010 REST </s> -0.3010
-0.3010 REVEL </s> -0.3010
-0.3010 RHYME </s> -0.3010
-0.3010 RIB </s> -0.3010
-0.3010 RICE </s> -0.3010
-0.3010 RICH </s> -0.3010
-0.3010 RICK </s> -0.3010
-0.3010 RID </s> -0.3010
-0.3010 RIDE </s> -0.3010
-0.3010 RIDGE </s> -0.3010
-0.3010 RIGHT </s> -0.3010
-0.3010 RIM </s> -0.3010
-0.3010 RINK </s> -0.3010
-0.3010 RIP </s> -0.3010
-0.3010 RISE </s> -0.3010
-0.3010 RITE </s> -0.3010
-0.3010 ROACH </s> -0.3010
-0.3010 ROAD </s> -0.3010
-0.3010 ROAM </s> -0.3010
-0.3010 ROB </s> -0.3010
-0.3010 ROBE </s> -0.3010
-0.3010 ROCK </s> -0.3010
-0.3010 ROCKER </s> -0.3010
-0.3010 ROCKET </s> -0.3010
-0.3010 ROOK </s> -0.3010
-0.3010 ROOM </s> -0.3010
-0.3010 ROOT </s> -0.3010
-0.3010 ROPE </s> -0.3010
-0.3010 ROSE </s> -0.3010
-0.3010 ROT </s> -0.3010
-0.3010 ROTE </s> -0.3010
-0.3010 ROUT </s> -0.3010
-0.3010 ROUTE </s> -0.3010
-0.3010 ROVES </s> -0.3010
-0.3010 ROYAL </s> -0.3010
-0.3010 RUBBER </s> -0.3010
-0.3010 RUBBLE </s> -0.3010
-0.3010 RUCK </s> -0.3010
-0.3010 RUG </s> -0.3010
-0.3010 RUM </s> -0.3010
-0.3010 RUMP </s> -0.3010
-0.3010 RUN </s> -0.3010
-0.3010 RUNG </s> -0.3010
-0.3010 RUSH </s> -0.3010
-0.3010 RUSHED </s> -0.3010
-0.3010 RUST </s> -0.3010
-0.3010 S </s> -0.3010
-0.3010 SACK </s> -0.3010
-0.3010 SAG </s> -0.3010
-0.3010 SAID </s> -0.3010
-0.3010 SAIL </s> -0.3010
-0.3010 SAINT </s> -0.3010
-0.3010 SAKE </s> -0.3010
-0.3010 SAKES </s> -0.3010
-0.3010 SALE </s> -0.3010
-0.3010 SALLY </s> -0.3010
-0.3010 SAME </s> -0.3010
-0.3010 SAND </s> -0.3010
-0.3010 SANE </s> -0.3010
-0.3010 SANG </s> -0.3010
-0.3010 SANK </s> -0.3010
-0.3010 SAP </s> -0.3010
-0.3010 SAPPER </s> -0.3010
-0.3010 SARGE </s> -0.3010
-0.3010 SASH </s> -0.3010
-0.3010 SASS </s> -0.3010
-0.3010 SATE </s> -0.3010
-0.3010 SAVE </s> -0.3010
-0.3010 SAW </s> -0.3010
-0.3010 SAWN </s> -0.3010
-0.3010 SAX </s> -0.3010
-0.3010 SCAM </s> -0.3010
-0.3010 SCAN </s> -0.3010
-0.3010 SCENE </s> -0.3010
-0.3010 SCONE </s> -0.3010
-0.3010 SCORN </s> -0.3010
-0.3010 SCOT </s> -0.3010
-0.3010 SCOTCH </s> -0.3010
-0.3010 SCRAM </s> -0.3010
-0.3010 SCRUM </s> -0.3010
-0.3010 SCUM </s> -0.3010
-0.3010 SCYTHE </s> -0.3010
-0.3010 SEA </s> -0.3010
-0.3010 SEAL </s> -0.3010
-0.3010 SEAM </s> -0.3010
-0.3010 SEAS </s> -0.3010
-0.3010 SEAT </s> -0.3010
-0.3010 SEE </s> -0.3010
-0.3010 SEED </s> -0.3010
-0.3010 SEEK </s> -0.3010
-0.3010 SEEM </s> -0.3010
-0.3010 SEEN </s> -0.3010
-0.3010 SEEP </s> -0.3010
-0.3010 SEER </s> -0.3010
-0.3010 SEETHE </s> -0.3010
-0.3010 SEIZE </s> -0.3010
-0.3010 SELL </s> -0.3010
-0.3010 SENT </s> -0.3010
-0.3010 SERB </s> -0.3010
-0.3010 SERVE </s> -0.3010
-0.3010 SET </s> -0.3010
-0.3010 SEW </s> -0.3010
-0.3010 SEX </s> -0.3010
-0.3010 SHACK </s> -0.3010
-0.3010 SHACKS </s> -0.3010
-0.3010 SHADE </s> -0.3010
-0.3010 SHAG </s> -0.3010
-0.3010 SHAKE </s> -0.3010
-0.3010 SHALE </s> -0.3010
-0.3010 SHAME </s> -0.3010
-0.3010 SHANK </s> -0.3010
-0.3010 SHARK </s> -0.3010
-0.3010 SHARPER </s> -0.3010
-0.3010 SHAVE </s> -0.3010
-0.3010 SHE </s> -0.3010
-0.3010 SHE'D </s> -0.3010
-0.3010 SHE'LL </s> -0.3010
-0.3010 SHE'S </s> -0.3010
-0.3010 SHEATHE </s> -0.3010
-0.3010 SHED </s> -0.3010
-0.3010 SHEEN </s> -0.3010
-0.3010 SHEEP </s> -0.3010
-0.3010 SHEER </s> -0.3010
-0.3010 SHEET </s> -0.3010
-0.3010 SHELL </s> -0.3010
-0.3010 SHERPA </s> -0.3010
-0.3010 SHE__ </s> -0.3010
-0.3010 SHE__L </s> -0.3010
-0.3010 SHIFT </s> -0.3010
-0.3010 SHILL </s> -0.3010
-0.3010 SHIN </s> -0.3010
-0.3010 SHINE </s> -0.3010
-0.3010 SHINGLE </s> -0.3010
-0.3010 SHIP </s> -0.3010
-0.3010 SHIRK </s> -0.3010
-0.3010 SHIT </s> -0.3010
-0.3010 SHOCK </s> -0.3010
-0.3010 SHOD </s> -0.3010
-0.3010 SHOE </s> -0.3010
-0.3010 SHOP </s> -0.3010
-0.3010 SHORE </s> -0.3010
-0.3010 SHORN </s> -0.3010
-0.3010 SHORT </s> -0.3010
-0.3010 SHOT </s> -0.3010
-0.3010 SHOW </s> -0.3010
-0.3010 SHOWN </s> -0.3010
-0.3010 SHUCKS </s> -0.3010
-0.3010 SHUN </s> -0.3010
-0.3010 SHY </s> -0.3010
-0.3010 SICK </s> -0.3010
-0.3010 SIEGE </s> -0.3010
-0.3010 SIFT </s> -0.3010
-0.3010 SIGH </s> -0.3010
-0.3010 SIGHS </s> -0.3010
-0.3010 SIGN </s> -0.3010
-0.3010 SILL </s> -0.3010
-0.3010 SIM </s> -0.3010
-0.3010 SIN </s> -0.3010
-0.3010 SINE </s> -0.3010
-0.3010 SING </s> -0.3010
-0.3010 SINGLE </s> -0.3010
-0.3010 SINK </s> -0.3010
-0.3010 SIP </s> -0.3010
-0.3010 SIT </s> -0.3010
-0.3010 SIZE </s> -0.3010
-0.3010 SKIM </s> -0.3010
-0.3010 SKIN </s> -0.3010
-0.3010 SLAG </s> -0.3010
-0.3010 SLAM </s> -0.3010
-0.3010 SLANG </s> -0.3010
-0.3010 SLASH </s> -0.3010
-0.3010 SLAT </s> -0.3010
-0.3010 SLED </s> -0.3010
-0.3010 SLEDGE </s> -0.3010
-0.3010 SLUG </s> -0.3010
-0.3010 SLUM </s> -0.3010
-0.3010 SLUNG </s> -0.3010
-0.3010 SLUSH </s> -0.3010
-0.3010 SLUT </s> -0.3010
-0.3010 SNORE </s> -0.3010
-0.3010 SNOW </s> -0.3010
-0.3010 SO </s> -0.3010
-0.3010 SOCK </s> -0.3010
-0.3010 SOD </s> -0.3010
-0.3010 SOFA </s> -0.3010
-0.3010 SOME </s> -0.3010
-0.3010 SON </s> -0.3010
-0.3010 SONG </s> -0.3010
-0.3010 SOOTHE </s> -0.3010
-0.3010 SOP </s> -0.3010
-0.3010 SORE </s> -0.3010
-0.3010 SORT </s> -0.3010
-0.3010 SOT </s> -0.3010
-0.3010 SOUGHT </s> -0.3010
-0.3010 SPADE </s> -0.3010
-0.3010 SPAM </s> -0.3010
-0.3010 SPAN </s> -0.3010
-0.3010 SPATIAL </s> -0.3010
-0.3010 SPECIAL </s> -0.3010
-0.3010 SPED </s> -0.3010
-0.3010 SPERM </s> -0.3010
-0.3010 SPLAT </s> -0.3010
-0.3010 SPLINT </s> -0.3010
-0.3010 SPRAT </s> -0.3010
-0.3010 SPRINT </s> -0.3010
-0.3010 SPURN </s> -0.3010
-0.3010 STAB </s> -0.3010
-0.3010 STACK </s> -0.3010
-0.3010 STAND </s> -0.3010
-0.3010 STANK </s> -0.3010
-0.3010 STAR </s> -0.3010
-0.3010 STARCH </s> -0.3010
-0.3010 START </s> -0.3010
-0.3010 STAYED </s> -0.3010
-0.3010 STEAD </s> -0.3010
-0.3010 STIR </s> -0.3010
-0.3010 STOKE </s> -0.3010
-0.3010 STORE </s> -0.3010
-0.3010 STORK </s> -0.3010
-0.3010 STOW </s> -0.3010
-0.3010 STUB </s> -0.3010
-0.3010 STUCK </s> -0.3010
-0.3010 STUN </s> -0.3010
-0.3010 STUNG </s> -0.3010
-0.3010 STUNK </s> -0.3010
-0.3010 STUNNED </s> -0.3010
-0.3010 SUCK </s> -0.3010
-0.3010 SUCKS </s> -0.3010
-0.3010 SUDS </s> -0.3010
-0.3010 SUE </s> -0.3010
-0.3010 SUES </s> -0.3010
-0.3010 SULLY </s> -0.3010
-0.3010 SUM </s> -0.3010
-0.3010 SUMP </s> -0.3010
-0.3010 SUN </s> -0.3010
-0.3010 SUNG </s> -0.3010
-0.3010 SUNK </s> -0.3010
-0.3010 SUNNED </s> -0.3010
-0.3010 SUP </s> -0.3010
-0.3010 SUPPER </s> -0.3010
-0.3010 SURE </s> -0.3010
-0.3010 SURGE </s> -0.3010
-0.3010 SWAM </s> -0.3010
-0.3010 SWUM </s> -0.3010
-0.3010 SYMBOL </s> -0.3010
-0.3010 TAB </s> -0.3010
-0.3010 TACK </s> -0.3010
-0.3010 TAG </s> -0.3010
-0.3010 TAINT </s> -0.3010
-0.3010 TAKE </s> -0.3010
-0.3010 TALE </s> -0.3010
-0.3010 TAN </s> -0.3010
-0.3010 TANG </s> -0.3010
-0.3010 TAP </s> -0.3010
-0.3010 TAR </s> -0.3010
-0.3010 TARPS </s> -0.3010
-0.3010 TART </s> -0.3010
-0.3010 TASTE </s> -0.3010
-0.3010 TAT </s> -0.3010
-0.3010 TAUGHT </s> -0.3010
-0.3010 TEACH </s> -0.3010
-0.3010 TEAK </s> -0.3010
-0.3010 TEAM </s> -0.3010
-0.3010 TEAR </s> -0.3010
-0.3010 TEAS </s> -0.3010
-0.3010 TEASE </s> -0.3010
-0.3010 TEASING </s> -0.3010
-0.3010 TEAT </s> -0.3010
-0.3010 TECH </s> -0.3010
-0.3010 TEEM </s> -0.3010
-0.3010 TEEN </s> -0.3010
-0.3010 TEETHE </s> -0.3010
-0.3010 TEETHING </s> -0.3010
-0.3010 TELL </s> -0.3010
-0.3010 TENSE </s> -0.3010
-0.3010 TENT </s> -0.3010
-0.3010 TENTH </s> -0.3010
-0.3010 TERM </s> -0.3010
-0.3010 TERN </s> -0.3010
-0.3010 TEST </s> -0.3010
-0.3010 THANK </s> -0.3010
-0.3010 THAW </s> -0.3010
-0.3010 THEME </s> -0.3010
-0.3010 THEN </s> -0.3010
-0.3010 THICK </s> -0.3010
-0.3010 THIGH </s> -0.3010
-0.3010 THIMBLE </s> -0.3010
-0.3010 THIN </s> -0.3010
-0.3010 THING </s> -0.3010
-0.3010 THINK </s> -0.3010
-0.3010 THONG </s> -0.3010
-0.3010 THORN </s> -0.3010
-0.3010 THOUGHT </s> -0.3010
-0.3010 THRASH </s> -0.3010
-0.3010 THRUSH </s> -0.3010
-0.3010 THUDS </s> -0.3010
-0.3010 THUMB </s> -0.3010
-0.3010 THUMP </s> -0.3010
-0.3010 THYME </s> -0.3010
-0.3010 TICK </s> -0.3010
-0.3010 TIDE </s> -0.3010
-0.3010 TIES </s> -0.3010
-0.3010 TILED </s> -0.3010
-0.3010 TILL </s> -0.3010
-0.3010 TIME </s> -0.3010
-0.3010 TIN </s> -0.3010
-0.3010 TINE </s> -0.3010
-0.3010 TING </s> -0.3010
-0.3010 TIP </s> -0.3010
-0.3010 TIT </s> -0.3010
-0.3010 TITHE </s> -0.3010
-0.3010 TOE </s> -0.3010
-0.3010 TOES </s> -0.3010
-0.3010 TOKE </s> -0.3010
-0.3010 TOMB </s> -0.3010
-0.3010 TOME </s> -0.3010
-0.3010 TON </s> -0.3010
-0.3010 TONE </s> -0.3010
-0.3010 TONGUE </s> -0.3010
-0.3010 TOO </s> -0.3010
-0.3010 TOON </s> -0.3010
-0.3010 TOP </s> -0.3010
-0.3010 TORCH </s> -0.3010
-0.3010 TORE </s> -0.3010
-0.3010 TORN </s> -0.3010
-0.3010 TORT </s> -0.3010
-0.3010 TOTE </s> -0.3010
-0.3010 TOUCH </s> -0.3010
-0.3010 TOUR </s> -0.3010
-0.3010 TRACK </s> -0.3010
-0.3010 TRADE </s> -0.3010
-0.3010 TRAINED </s> -0.3010
-0.3010 TRAMPS </s> -0.3010
-0.3010 TRAMS </s> -0.3010
-0.3010 TRANS- </s> -0.3010
-0.3010 TREAD </s> -0.3010
-0.3010 TREND </s> -0.3010
-0.3010 TRUCE </s> -0.3010
-0.3010 TRUCK </s> -0.3010
-0.3010 TRUMPS </s> -0.3010
-0.3010 TRUTH </s> -0.3010
-0.3010 TS </s> -0.3010
-0.3010 TUB </s> -0.3010
-0.3010 TUBBY </s> -0.3010
-0.3010 TUCK </s> -0.3010
-0.3010 TUFT </s> -0.3010
-0.3010 TUG </s> -0.3010
-0.3010 TURN </s> -0.3010
-0.3010 TURPS </s> -0.3010
-0.3010 TUT </s> -0.3010
-0.3010 TWIT </s> -0.3010
-0.3010 TWITCH </s> -0.3010
-0.3010 TWO </s> -0.3010
-0.3010 TWOS </s> -0.3010
-0.3010 UNCLE </s> -0.3010
-0.3010 USE </s> -0.3010
-0.3010 VAN </s> -0.3010
-0.3010 VAT </s> -0.3010
-0.3010 VEER </s> -0.3010
-0.3010 VEIL </s> -0.3010
-0.3010 VEIN </s> -0.3010
-0.3010 VEINED </s> -0.3010
-0.3010 VEND </s> -0.3010
-0.3010 VENT </s> -0.3010
-0.3010 VERB </s> -0.3010
-0.3010 VERVE </s> -0.3010
-0.3010 VERY </s> -0.3010
-0.3010 VID </s> -0.3010
-0.3010 VILE </s> -0.3010
-0.3010 VIZ </s> -0.3010
-0.3010 VOLE </s> -0.3010
-0.3010 VOLT </s> -0.3010
-0.3010 VOTE </s> -0.3010
-0.3010 VOW </s> -0.3010
-0.3010 VOWELS </s> -0.3010
-0.3010 VROOM </s> -0.3010
-0.3010 WADE </s> -0.3010
-0.3010 WAGE </s> -0.3010
-0.3010 WAIST </s> -0.3010
-0.3010 WAIT </s> -0.3010
-0.3010 WAN </s> -0.3010
-0.3010 WANE </s> -0.3010
-0.3010 WANED </s> -0.3010
-0.3010 WATCH </s> -0.3010
-0.3010 WED </s> -0.3010
-0.3010 WEDGE </s> -0.3010
-0.3010 WEIGHED </s> -0.3010
-0.3010 WELL </s> -0.3010
-0.3010 WEND </s> -0.3010
-0.3010 WEST </s> -0.3010
-0.3010 WET </s> -0.3010
-0.3010 WHALE </s> -0.3010
-0.3010 WHAT </s> -0.3010
-0.3010 WHEN </s> -0.3010
-0.3010 WHICH </s> -0.3010
-0.3010 WHIZZ </s> -0.3010
-0.3010 WHOLE </s> -0.3010
-0.3010 WHORE </s> -0.3010
-0.3010 WHORES </s> -0.3010
-0.3010 WIN </s> -0.3010
-0.3010 WIND </s> -0.3010
-0.3010 WING </s> -0.3010
-0.3010 WINGED </s> -0.3010
-0.3010 WIT </s> -0.3010
-0.3010 WITCH </s> -0.3010
-0.3010 WITH </s> -0.3010
-0.3010 WON </s> -0.3010
-0.3010 WORSE </s> -0.3010
-0.3010 WORTH </s> -0.3010
-0.3010 WRAITH </s> -0.3010
-0.3010 WRAP </s> -0.3010
-0.3010 WRECK </s> -0.3010
-0.3010 WREN </s> -0.3010
-0.3010 WRENCH </s> -0.3010
-0.3010 WRIST </s> -0.3010
-0.3010 WRIT </s> -0.3010
-0.3010 WRITER </s> -0.3010
-0.3010 WRONG </s> -0.3010
-0.3010 WROTE </s> -0.3010
-0.3010 X </s> -0.3010
-0.3010 YOUTH </s> -0.3010
-0.3010 ZEN </s> -0.3010

\3-grams:
-0.3010 <s> ACE </s>
-0.3010 <s> ACHES </s>
-0.3010 <s> AGE </s>
-0.3010 <s> AIM </s>
-0.3010 <s> ALE </s>
-0.3010 <s> ALIVE </s>
-0.3010 <s> AM </s>
-0.3010 <s> AN </s>
-0.3010 <s> ANKLE </s>
-0.3010 <s> ARC </s>
-0.3010 <s> ARCH </s>
-0.3010 <s> ARRIVE </s>
-0.3010 <s> ART </s>
-0.3010 <s> ASH </s>
-0.3010 <s> ASS </s>
-0.3010 <s> AWED </s>
-0.3010 <s> BACK </s>
-0.3010 <s> BAD </s>
-0.3010 <s> BADE </s>
-0.3010 <s> BADGE </s>
-0.3010 <s> BAG </s>
-0.3010 <s> BAIL </s>
-0.3010 <s> BAIT </s>
-0.3010 <s> BAIZE </s>
-0.3010 <s> BAKE </s>
-0.3010 <s> BALE </s>
-0.3010 <s> BALL </s>
-0.3010 <s> BAN </s>
-0.3010 <s> BAND </s>
-0.3010 <s> BANE </s>
-0.3010 <s> BANG </s>
-0.3010 <s> BANGED </s>
-0.3010 <s> BANK </s>
-0.3010 <s> BANKER </s>
-0.3010 <s> BANNED </s>
-0.3010 <s> BAR </s>
-0.3010 <s> BARBS </s>
-0.3010 <s> BARD </s>
-0.3010 <s> BARGE </s>
-0.3010 <s> BARN </s>
-0.3010 <s> BARRED </s>
-0.3010 <s> BASED </s>
-0.3010 <s> BASH </s>
-0.3010 <s> BASS </s>
-0.3010 <s> BAT </s>
-0.3010 <s> BATCH </s>
-0.3010 <s> BATED </s>
-0.3010 <s> BATH </s>
-0.3010 <s> BATHE </s>
-0.3010 <s> BATTER </s>
-0.3010 <s> BAYS </s>
-0.3010 <s> BEACH </s>
-0.3010 <s> BEAM </s>
-0.3010 <s> BEAN </s>
-0.3010 <s> BEAT </s>
-0.3010 <s> BECK </s>
-0.3010 <s> BED </s>
-0.3010 <s> BEECH </s>
-0.3010 <s> BEEN </s>
-0.3010 <s> BEER </s>
-0.3010 <s> BEET </s>
-0.3010 <s> BEGAN </s>
-0.3010 <s> BEGUN </s>
-0.3010 <s> BELCH </s>
-0.3010 <s> BELL </s>
-0.3010 <s> BELLY </s>
-0.3010 <s> BELT </s>
-0.3010 <s> BENCH </s>
-0.3010 <s> BENT </s>
-0.3010 <s> BERRY </s>
-0.3010 <s> BERTH </s>
-0.3010 <s> BEST </s>
-0.3010 <s> BET </s>
-0.3010 <s> BETTED </s>
-0.3010 <s> BID </s>
-0.3010 <s> BILE </s>
-0.3010 <s> BIRD </s>
-0.3010 <s> BIRTH </s>
-0.3010 <s> BIT </s>
-0.3010 <s> BITCH </s>
-0.3010 <s> BITCHY </s>
-0.3010 <s> BITTY </s>
-0.3010 <s> BIZ </s>
-0.3010 <s> BLABBER </s>
-0.3010 <s> BLACKEN </s>
-0.3010 <s> BLADE </s>
-0.3010 <s> BLAH </s>
-0.3010 <s> BLAIN </s>
-0.3010 <s> BLAME </s>
-0.3010 <s> BLEACH </s>
-0.3010 <s> BLEAT </s>
-0.3010 <s> BLED </s>
-0.3010 <s> BLEW </s>
-0.3010 <s> BLIGHT </s>
-0.3010 <s> BLOT </s>
-0.3010 <s> BLOTCH </s>
-0.3010 <s> BLUBBER </s>
-0.3010 <s> BLUE </s>
-0.3010 <s> BLUES </s>
-0.3010 <s> BLUR </s>
-0.3010 <s> BLUSH </s>
-0.3010 <s> BOAT </s>
-0.3010 <s> BODE </s>
-0.3010 <s> BOLT </s>
-0.3010 <s> BONGS </s>
-0.3010 <s> BONZE </s>
-0.3010 <s> BOOM </s>
-0.3010 <s> BOON </s>
-0.3010 <s> BORE </s>
-0.3010 <s> BORED </s>
-0.3010 <s> BOSH </s>
-0.3010 <s> BOSS </s>
-0.3010 <s> BOT </s>
-0.3010 <s> BOTCH </s>
-0.3010 <s> BOUGHT </s>
-0.3010 <s> BOW </s>
-0.3010 <s> BOWELS </s>
-0.3010 <s> BOWL </s>
-0.3010 <s> BRACED </s>
-0.3010 <s> BRACKEN </s>
-0.3010 <s> BRAID </s>
-0.3010 <s> BRASH </s>
-0.3010 <s> BREAD </s>
-0.3010 <s> BREAST </s>
-0.3010 <s> BREATHE </s>
-0.3010 <s> BREEZE </s>
-0.3010 <s> BREW </s>
-0.3010 <s> BRIGHT </s>
-0.3010 <s> BROOM </s>
-0.3010 <s> BRUISE </s>
-0.3010 <s> BRUSH </s>
-0.3010 <s> BUCK </s>
-0.3010 <s> BUD </s>
-0.3010 <s> BUDGE </s>
-0.3010 <s> BUG </s>
-0.3010 <s> BUN </s>
-0.3010 <s> BUNG </s>
-0.3010 <s> BUNK </s>
-0.3010 <s> BUNKER </s>
-0.3010 <s> BURBS </s>
-0.3010 <s> BURN </s>
-0.3010 <s> BURR </s>
-0.3010 <s> BURY </s>
-0.3010 <s> BUT </s>
-0.3010 <s> BUTTER </s>
-0.3010 <s> C </s>
-0.3010 <s> CAB </s>
-0.3010 <s> CAD </s>
-0.3010 <s> CADGE </s>
-0.3010 <s> CAM </s>
-0.3010 <s> CAME </s>
-0.3010 <s> CAN </s>
-0.3010 <s> CANE </s>
-0.3010 <s> CAP </s>
-0.3010 <s> CAR </s>
-0.3010 <s> CARBS </s>
-0.3010 <s> CARD </s>
-0.3010 <s> CART </s>
-0.3010 <s> CARVE </s>
-0.3010 <s> CAT </s>
-0.3010 <s> CATCH </s>
-0.3010 <s> CATCHY </s>
-0.3010 <s> CATTY </s>
-0.3010 <s> CHAIR </s>
-0.3010 <s> CHALK </s>
-0.3010 <s> CHAMP </s>
-0.3010 <s> CHAP </s>
-0.3010 <s> CHAR </s>
-0.3010 <s> CHARGE </s>
-0.3010 <s> CHARRED </s>
-0.3010 <s> CHART </s>
-0.3010 <s> CHASE </s>
-0.3010 <s> CHAT </s>
-0.3010 <s> CHAUFFEUR </s>
-0.3010 <s> CHEAT </s>
-0.3010 <s> CHEEK </s>
-0.3010 <s> CHEER </s>
-0.3010 <s> CHEESE </s>
-0.3010 <s> CHESS </s>
-0.3010 <s> CHEST </s>
-0.3010 <s> CHEW </s>
-0.3010 <s> CHIC </s>
-0.3010 <s> CHICK </s>
-0.3010 <s> CHIDE </s>
-0.3010 <s> CHILD </s>
-0.3010 <s> CHILL </s>
-0.3010 <s> CHIME </s>
-0.3010 <s> CHIN </s>
-0.3010 <s> CHING </s>
-0.3010 <s> CHIP </s>
-0.3010 <s> CHIRPS </s>
-0.3010 <s> CHIT </s>
-0.3010 <s> CHOKE </s>
-0.3010 <s> CHOOSE </s>
-0.3010 <s> CHOP </s>
-0.3010 <s> CHORE </s>
-0.3010 <s> CHORES </s>
-0.3010 <s> CHOSE </s>
-0.3010 <s> CHUBBY </s>
-0.3010 <s> CHUFFED </s>
-0.3010 <s> CHUG </s>
-0.3010 <s> CHUMP </s>
-0.3010 <s> CHURN </s>
-0.3010 <s> CLAM </s>
-0.3010 <s> CLAN </s>
-0.3010 <s> CLANG </s>
-0.3010 <s> CLASH </s>
-0.3010 <s> CLAWS </s>
-0.3010 <s> CLOSE </s>
-0.3010 <s> CLOSING </s>
-0.3010 <s> CLOTHE </s>
-0.3010 <s> CLOTHING </s>
-0.3010 <s> CLOWN </s>
-0.3010 <s> COACH </s>
-0.3010 <s> COAST </s>
-0.3010 <s> COAT </s>
-0.3010 <s> CODE </s>
-0.3010 <s> COKE </s>
-0.3010 <s> COLLECT </s>
-0.3010 <s> COMB </s>
-0.3010 <s> COME </s>
-0.3010 <s> CONE </s>
-0.3010 <s> COPES </s>
-0.3010 <s> CORD </s>
-0.3010 <s> CORK </s>
-0.3010 <s> CORN </s>
-0.3010 <s> CORPSE </s>
-0.3010 <s> CORRECT </s>
-0.3010 <s> COSHED </s>
-0.3010 <s> COST </s>
-0.3010 <s> COURSED </s>
-0.3010 <s> CRAM </s>
-0.3010 <s> CRASH </s>
-0.3010 <s> CRASS </s>
-0.3010 <s> CRAW </s>
-0.3010 <s> CROW </s>
-0.3010 <s> CROWN </s>
-0.3010 <s> CRUMB </s>
-0.3010 <s> CRUSH </s>
-0.3010 <s> CRUSHED </s>
-0.3010 <s> CRUST </s>
-0.3010 <s> CS </s>
-0.3010 <s> CUB </s>
-0.3010 <s> CUP </s>
-0.3010 <s> CUR </s>
-0.3010 <s> CURB </s>
-0.3010 <s> CURBS </s>
-0.3010 <s> CURD </s>
-0.3010 <s> CURT </s>
-0.3010 <s> CURVE </s>
-0.3010 <s> CUT </s>
-0.3010 <s> DAB </s>
-0.3010 <s> DABBLE </s>
-0.3010 <s> DAD </s>
-0.3010 <s> DALE </s>
-0.3010 <s> DAM </s>
-0.3010 <s> DAMN </s>
-0.3010 <s> DAMP </s>
-0.3010 <s> DANGLE </s>
-0.3010 <s> DANK </s>
-0.3010 <s> DART </s>
-0.3010 <s> DATE </s>
-0.3010 <s> DAWN </s>
-0.3010 <s> DAY </s>
-0.3010 <s> DEAN </s>
-0.3010 <s> DEANS </s>
-0.3010 <s> DEAR </s>
-0.3010 <s> DEBT </s>
-0.3010 <s> DEEM </s>
-0.3010 <s> DEEP </s>
-0.3010 <s> DEIGN </s>
-0.3010 <s> DELL </s>
-0.3010 <s> DEN </s>
-0.3010 <s> DIG </s>
-0.3010 <s> DIM </s>
-0.3010 <s> DIME </s>
-0.3010 <s> DIN </s>
-0.3010 <s> DINE </s>
-0.3010 <s> DING </s>
-0.3010 <s> DINK </s>
-0.3010 <s> DINKS </s>
-0.3010 <s> DIRT </s>
-0.3010 <s> DISSED </s>
-0.3010 <s> DIVE </s>
-0.3010 <s> DO </s>
-0.3010 <s> DOB </s>
-0.3010 <s> DOCK </s>
-0.3010 <s> DOE </s>
-0.3010 <s> DOG </s>
-0.3010 <s> DOME </s>
-0.3010 <s> DON </s>
-0.3010 <s> DONE </s>
-0.3010 <s> DONG </s>
-0.3010 <s> DOOR </s>
-0.3010 <s> DOORS </s>
-0.3010 <s> DORM </s>
-0.3010 <s> DOSH </s>
-0.3010 <s> DOSS </s>
-0.3010 <s> DOT </s>
-0.3010 <s> DOUBLE </s>
-0.3010 <s> DOUSED </s>
-0.3010 <s> DOVE </s>
-0.3010 <s> DOZE </s>
-0.3010 <s> DRAM </s>
-0.3010 <s> DRANK </s>
-0.3010 <s> DRAWN </s>
-0.3010 <s> DREAD </s>
-0.3010 <s> DREDGE </s>
-0.3010 <s> DRIBBLE </s>
-0.3010 <s> DRIVEL </s>
-0.3010 <s> DRONE </s>
-0.3010 <s> DRUM </s>
-0.3010 <s> DRUNK </s>
-0.3010 <s> DS </s>
-0.3010 <s> DUB </s>
